{"learner":{"attributes":{"best_iteration":"199","best_score":"0.33750736006498266","scikit_learn":"{\"_estimator_type\": \"classifier\"}"},"feature_names":[],"feature_types":[],"gradient_booster":{"model":{"cats":{"enc":[],"feature_segments":[],"sorted_idx":[]},"gbtree_model_param":{"num_parallel_tree":"1","num_trees":"200"},"iteration_indptr":[0,1,2,3,4,5,6,7,8,9,10,11,12,13,14,15,16,17,18,19,20,21,22,23,24,25,26,27,28,29,30,31,32,33,34,35,36,37,38,39,40,41,42,43,44,45,46,47,48,49,50,51,52,53,54,55,56,57,58,59,60,61,62,63,64,65,66,67,68,69,70,71,72,73,74,75,76,77,78,79,80,81,82,83,84,85,86,87,88,89,90,91,92,93,94,95,96,97,98,99,100,101,102,103,104,105,106,107,108,109,110,111,112,113,114,115,116,117,118,119,120,121,122,123,124,125,126,127,128,129,130,131,132,133,134,135,136,137,138,139,140,141,142,143,144,145,146,147,148,149,150,151,152,153,154,155,156,157,158,159,160,161,162,163,164,165,166,167,168,169,170,171,172,173,174,175,176,177,178,179,180,181,182,183,184,185,186,187,188,189,190,191,192,193,194,195,196,197,198,199,200],"tree_info":[0,0,0,0,0,0,0,0,0,0,0,0,0,0,0,0,0,0,0,0,0,0,0,0,0,0,0,0,0,0,0,0,0,0,0,0,0,0,0,0,0,0,0,0,0,0,0,0,0,0,0,0,0,0,0,0,0,0,0,0,0,0,0,0,0,0,0,0,0,0,0,0,0,0,0,0,0,0,0,0,0,0,0,0,0,0,0,0,0,0,0,0,0,0,0,0,0,0,0,0,0,0,0,0,0,0,0,0,0,0,0,0,0,0,0,0,0,0,0,0,0,0,0,0,0,0,0,0,0,0,0,0,0,0,0,0,0,0,0,0,0,0,0,0,0,0,0,0,0,0,0,0,0,0,0,0,0,0,0,0,0,0,0,0,0,0,0,0,0,0,0,0,0,0,0,0,0,0,0,0,0,0,0,0,0,0,0,0,0,0,0,0,0,0,0,0,0,0,0,0],"trees":[{"base_weights":[-8.1479846E-4,-2.1407735E-1,1.1332816E0,9.016584E-2,-8.893614E-1,1.3747475E0,5.179465E-1,-1.3207E0,1.9585846E-1,-9.8136044E-1,9.494372E-2,1.5809813E0,9.039563E-1,3.328442E-1,1.1801229E0,1.0849738E-1,-1.5206438E0,-1.8165456E0,2.6584682E-1,-1.0283746E0,6.94584E-1,-1.8219287E0,2.2264168E-1,1.6044102E0,-1.5095031E0,9.872777E-1,-6.7188895E-1,5.0355E-1,-3.9871153E-1,1.2424294E0,-8.2109296E-1,1.8945606E-1,-2.0633213E-1,-1.5609372E0,2.9135332E-1,-1.8748996E0,-1.1499082E0,-9.6566546E-1,3.5424456E-1,-1.1025769E0,-1.1041077E-1,8.004295E-1,-1.4358598E0,2.0927971E-2,-1.8851082E0,4.263309E-1,-5.5824184E-1,-1.1604992E0,1.6218135E0,2.0927971E-2,-1.638696E0,-2.3689987E-1,1.0861334E0,-8.5225177E-1,9.806737E-1,5.5734926E-1,-1.5172774E0,-5.5564E-1,3.106476E-1,-2.2217132E-2,1.3321198E0,-1.172153E0,5.306573E-2,-1.8623208E-1,5.6879125E-3,-1.5937379E-1,4.3130793E-2,9.439205E-2,-5.2144624E-2,3.8603652E-2,-1.8820271E-1,1.3179028E-1,-1.2822613E-1,-1.07808374E-1,1.1338043E-2,4.1381367E-2,-1.2150132E-1,-9.150355E-2,-1.4146271E-1,-2.1892972E-2,1.1591774E-1,5.5271786E-2,1.4587831E-1,-3.4891497E-2,-1.6570595E-1,-1.9283544E-1,-2.351983E-2,4.9235146E-2,-1.3134529E-1,1.2111721E-1,-6.400594E-2,6.5375775E-2,-1.3552754E-1,1.6402017E-1,-7.914617E-2,-1.7720932E-1,-4.777315E-2,-5.750158E-2,5.123192E-2,1.1295726E-1,-1.0991937E-1,-9.468354E-2,9.845393E-2,-2.351983E-2,1.3501516E-1,-9.228643E-2,6.26862E-2,3.8603652E-2,-1.6629422E-1,-6.132408E-2,1.4098446E-1,5.7288267E-2,-9.16767E-2,4.6110068E-2,-9.5366076E-2,1.3805833E-1,-4.447933E-2,2.0927971E-2,-1.4487332E-1],"categories":[],"categories_nodes":[],"categories_segments":[],"categories_sizes":[],"default_left":[1,1,1,0,1,1,0,0,0,1,0,1,1,0,1,0,1,1,0,1,1,0,0,0,0,0,1,1,1,0,1,0,0,1,1,0,0,1,1,0,1,0,0,0,1,1,0,0,1,0,1,0,1,1,0,0,0,1,1,0,1,0,0,0,0,0,0,0,0,0,0,0,0,0,0,0,0,0,0,0,0,0,0,0,0,0,0,0,0,0,0,0,0,0,0,0,0,0,0,0,0,0,0,0,0,0,0,0,0,0,0,0,0,0,0,0,0,0,0],"id":0,"left_children":[1,3,5,7,9,11,13,15,17,19,21,23,25,27,29,31,33,35,37,39,41,43,45,47,49,51,53,55,57,59,61,-1,63,65,67,69,71,73,75,77,79,81,83,-1,85,87,89,91,93,-1,95,97,99,101,103,105,107,109,111,113,115,117,-1,-1,-1,-1,-1,-1,-1,-1,-1,-1,-1,-1,-1,-1,-1,-1,-1,-1,-1,-1,-1,-1,-1,-1,-1,-1,-1,-1,-1,-1,-1,-1,-1,-1,-1,-1,-1,-1,-1,-1,-1,-1,-1,-1,-1,-1,-1,-1,-1,-1,-1,-1,-1,-1,-1,-1,-1],"loss_changes":[7.724693E3,5.5232783E3,7.5041895E2,2.7640483E3,7.562388E2,3.5101953E2,1.7443008E2,3.6931567E2,2.4291274E3,6.0241406E2,1.7533887E2,1.8509766E2,1.4615839E2,1.3958002E2,3.982428E1,9.00665E1,8.320215E1,2.0393677E1,1.8145134E3,5.0587012E2,4.8272003E1,6.136566E0,1.0695112E2,1.2238965E2,4.672447E0,1.276709E2,1.7599466E1,9.927736E1,2.3741135E1,3.4308167E1,5.366884E0,0E0,5.959481E1,7.314722E1,1.4015797E1,9.290283E0,1.7773918E1,1.3554028E2,1.4540476E3,4.0091895E2,7.694925E1,3.1764908E1,1.885952E0,0E0,2.6498566E0,6.1830833E1,2.0931606E1,6.627615E0,1.11756836E2,0E0,1.9794197E0,2.0431057E1,9.3737305E1,9.834686E0,3.0126753E0,9.139545E1,7.225685E0,2.0532757E1,1.3076508E1,9.892357E0,2.49169E1,3.4549494E0,0E0,0E0,0E0,0E0,0E0,0E0,0E0,0E0,0E0,0E0,0E0,0E0,0E0,0E0,0E0,0E0,0E0,0E0,0E0,0E0,0E0,0E0,0E0,0E0,0E0,0E0,0E0,0E0,0E0,0E0,0E0,0E0,0E0,0E0,0E0,0E0,0E0,0E0,0E0,0E0,0E0,0E0,0E0,0E0,0E0,0E0,0E0,0E0,0E0,0E0,0E0,0E0,0E0,0E0,0E0,0E0,0E0],"parents":[2147483647,0,0,1,1,2,2,3,3,4,4,5,5,6,6,7,7,8,8,9,9,10,10,11,11,12,12,13,13,14,14,15,15,16,16,17,17,18,18,19,19,20,20,21,21,22,22,23,23,24,24,25,25,26,26,27,27,28,28,29,29,30,30,32,32,33,33,34,34,35,35,36,36,37,37,38,38,39,39,40,40,41,41,42,42,44,44,45,45,46,46,47,47,48,48,50,50,51,51,52,52,53,53,54,54,55,55,56,56,57,57,58,58,59,59,60,60,61,61],"right_children":[2,4,6,8,10,12,14,16,18,20,22,24,26,28,30,32,34,36,38,40,42,44,46,48,50,52,54,56,58,60,62,-1,64,66,68,70,72,74,76,78,80,82,84,-1,86,88,90,92,94,-1,96,98,100,102,104,106,108,110,112,114,116,118,-1,-1,-1,-1,-1,-1,-1,-1,-1,-1,-1,-1,-1,-1,-1,-1,-1,-1,-1,-1,-1,-1,-1,-1,-1,-1,-1,-1,-1,-1,-1,-1,-1,-1,-1,-1,-1,-1,-1,-1,-1,-1,-1,-1,-1,-1,-1,-1,-1,-1,-1,-1,-1,-1,-1,-1,-1],"split_conditions":[5.325481E-2,4.0032346E-2,2.8641403E-2,8.866785E-1,3.9542153E-2,2.4571566E-2,1.1339965E-1,7.818581E-1,1.1832714E0,5.5428397E-2,3.611584E-1,8.772194E-2,6.1458927E-2,8.458452E-2,1.2843612E-1,3.483454E-1,5.3927623E-2,5.180687E-2,1.5810114E0,4.1236315E-2,6.2747404E-2,8.704232E-2,9.208635E-2,3.0679807E-1,1.02774166E-1,8.410492E-1,7.157292E-2,5.917885E-2,5.700452E-2,9.961187E-1,1.0154809E-1,1.8945606E-1,1.1234065E-1,1.2478765E-1,2.9421678E-2,1.4073467E-1,4.6517536E-2,4.2734396E-2,5.4734163E-2,7.942089E-2,9.77332E-2,1.246081E-1,4.581307E-2,2.0927971E-2,6.824351E-2,5.6498174E-2,1.4509217E-1,1.1209149E-1,9.1216E-2,2.0927971E-2,6.1243333E-2,1.0512709E-1,8.803926E-2,1.4224988E-1,1.0346833E-1,2.591322E-1,5.91805E-2,9.201048E-2,5.6165665E-2,1.3328849E-1,8.008811E-2,7.5186856E-2,5.306573E-2,-1.8623208E-1,5.6879125E-3,-1.5937379E-1,4.3130793E-2,9.439205E-2,-5.2144624E-2,3.8603652E-2,-1.8820271E-1,1.3179028E-1,-1.2822613E-1,-1.07808374E-1,1.1338043E-2,4.1381367E-2,-1.2150132E-1,-9.150355E-2,-1.4146271E-1,-2.1892972E-2,1.1591774E-1,5.5271786E-2,1.4587831E-1,-3.4891497E-2,-1.6570595E-1,-1.9283544E-1,-2.351983E-2,4.9235146E-2,-1.3134529E-1,1.2111721E-1,-6.400594E-2,6.5375775E-2,-1.3552754E-1,1.6402017E-1,-7.914617E-2,-1.7720932E-1,-4.777315E-2,-5.750158E-2,5.123192E-2,1.1295726E-1,-1.0991937E-1,-9.468354E-2,9.845393E-2,-2.351983E-2,1.3501516E-1,-9.228643E-2,6.26862E-2,3.8603652E-2,-1.6629422E-1,-6.132408E-2,1.4098446E-1,5.7288267E-2,-9.16767E-2,4.6110068E-2,-9.5366076E-2,1.3805833E-1,-4.447933E-2,2.0927971E-2,-1.4487332E-1],"split_indices":[1625,2745,2745,2572,519,655,1625,4897,4894,1269,391,3842,432,2745,3866,4720,1269,519,432,2404,3127,1097,2745,4894,1462,1629,4196,3127,4950,2761,1980,0,2787,1462,4626,1286,4196,519,1060,2745,2406,1269,1980,0,1589,4894,1269,1321,3127,0,323,1625,1060,4135,713,1629,4733,1269,4626,655,1861,1593,0,0,0,0,0,0,0,0,0,0,0,0,0,0,0,0,0,0,0,0,0,0,0,0,0,0,0,0,0,0,0,0,0,0,0,0,0,0,0,0,0,0,0,0,0,0,0,0,0,0,0,0,0,0,0,0,0],"split_type":[0,0,0,0,0,0,0,0,0,0,0,0,0,0,0,0,0,0,0,0,0,0,0,0,0,0,0,0,0,0,0,0,0,0,0,0,0,0,0,0,0,0,0,0,0,0,0,0,0,0,0,0,0,0,0,0,0,0,0,0,0,0,0,0,0,0,0,0,0,0,0,0,0,0,0,0,0,0,0,0,0,0,0,0,0,0,0,0,0,0,0,0,0,0,0,0,0,0,0,0,0,0,0,0,0,0,0,0,0,0,0,0,0,0,0,0,0,0,0],"sum_hessian":[3.1936656E4,2.6882344E4,5.0543125E3,1.8533229E4,8.349114E3,3.6290063E3,1.4253062E3,1.2908243E3,1.7242404E4,7.6354614E3,7.136529E2,2.521907E3,1.1070994E3,1.1150983E3,3.102078E2,1.5847844E2,1.132346E3,5.7867126E2,1.6663732E4,7.4274897E3,2.0797171E2,4.374405E1,6.699089E2,2.5034094E3,1.8497484E1,1.0518569E3,5.5242485E1,9.0437695E2,2.1072133E2,3.01209E2,8.9987755E0,2.2996872E1,1.3548157E2,1.1078492E3,2.4496668E1,5.3042786E2,4.824344E1,1.1153483E3,1.5548385E4,6.871815E3,5.5567444E2,1.9872296E2,9.248742E0,1.24983E0,4.249422E1,5.316777E2,1.382312E2,1.5247926E1,2.4881616E3,1.24983E0,1.7247654E1,7.848932E1,9.733676E2,5.0243164E1,4.99932E0,8.8163007E2,2.2746906E1,1.727265E2,3.799483E1,1.999728E1,2.8121173E2,7.249014E0,1.7497619E0,1.7747585E1,1.17733986E2,1.0901017E3,1.7747585E1,1.3498164E1,1.0998504E1,1.4997959E0,5.2892804E2,1.999728E0,4.624371E1,1.0101126E3,1.0523569E2,1.4980462E4,5.679227E2,4.2946655E3,2.5771494E3,5.1268024E2,4.2994152E1,1.4573018E2,5.299279E1,1.999728E0,7.249014E0,4.124439E1,1.24983E0,5.1293024E2,1.874745E1,5.499252E0,1.3273195E2,1.24983E0,1.39980955E1,2.469664E3,1.8497484E1,1.499796E1,2.2496939E0,5.4242622E1,2.4246702E1,9.548701E2,1.8497484E1,4.824344E1,1.999728E0,1.24983E0,3.74949E0,3.8994694E1,8.426354E2,1.4997959E0,2.124711E1,1.6847708E2,4.249422E0,3.1745682E1,6.24915E0,1.3498164E1,6.499116E0,2.7396274E2,7.249014E0,1.24983E0,5.9991837E0],"tree_param":{"num_deleted":"0","num_feature":"5000","num_nodes":"119","size_leaf_vector":"1"}},{"base_weights":[-2.4930204E-3,3.5784626E-1,-5.468401E-1,-1.7975152E0,4.392078E-1,-1.8268818E0,-4.7508767E-1,-1.8043699E0,8.431306E-2,-9.246487E-1,5.247535E-1,4.021552E-2,-1.8324267E0,-3.3470413E-1,-1.1472081E0,7.8201115E-2,-1.8110453E0,-8.3355355E-1,-1.7769209E0,-1.5253891E0,5.726882E-1,1.643882E-3,-1.8379394E0,-4.134756E-1,7.319321E-1,-9.703514E-1,-1.4439386E0,-1.820242E0,1.2148236E-1,5.0432104E-1,-8.7788624E-1,-1.3448936E-2,-1.7953095E0,-1.5467291E0,5.7803196E-1,-1.4858199E0,6.1668223E-1,-1.8422217E0,2.5809089E-2,-4.684492E-1,9.530856E-1,-9.9668956E-1,7.837627E-1,5.564644E-1,-1.0049694E0,-1.5359567E0,-1.0951333E0,-1.8257105E-1,6.7622036E-2,1.1245235E-1,-6.720867E-2,9.6328594E-2,-3.333373E-2,-9.3622245E-2,2.0385234E-2,-1.8137985E-1,-1.5192251E-2,7.3814474E-2,-1.5645297E-1,-4.7433596E-2,1.35011E-1,2.404303E-3,-1.5451042E-1,-1.0447232E-1,6.666376E-2,-1.2263018E-2,-1.847811E-1,-1.7157929E-1,-4.1973345E-2,-1.1906115E-1,1.02386825E-1,-1.2238331E-1,9.141922E-2,6.488093E-2,1.4260341E-1,-1.0542057E-1,8.1158645E-2,-1.0397597E-1,4.59569E-2,-1.5472652E-1,7.142952E-2,-3.8224657E-3,-1.1903574E-1],"categories":[],"categories_nodes":[],"categories_segments":[],"categories_sizes":[],"default_left":[1,0,0,1,0,0,0,0,0,1,0,0,0,1,0,0,1,0,0,1,0,0,1,1,0,0,1,1,0,0,1,0,1,0,1,0,0,0,0,0,0,1,1,0,1,1,0,0,0,0,0,0,0,0,0,0,0,0,0,0,0,0,0,0,0,0,0,0,0,0,0,0,0,0,0,0,0,0,0,0,0,0,0],"id":1,"left_children":[1,3,5,7,9,11,13,15,-1,17,19,-1,21,23,25,-1,27,29,31,33,35,-1,37,39,41,43,45,47,49,51,53,-1,55,57,59,61,63,65,-1,67,69,71,73,75,77,79,81,-1,-1,-1,-1,-1,-1,-1,-1,-1,-1,-1,-1,-1,-1,-1,-1,-1,-1,-1,-1,-1,-1,-1,-1,-1,-1,-1,-1,-1,-1,-1,-1,-1,-1,-1,-1],"loss_changes":[6.274852E3,3.3762507E3,1.1694133E3,1.4198486E1,2.1646375E3,9.091553E0,1.1381736E3,1.3482422E1,0E0,8.354407E1,1.7162144E3,0E0,6.904541E0,8.3910583E2,1.07989746E2,0E0,1.261499E1,5.9237183E1,2.9258118E0,1.8806824E1,1.5456133E3,0E0,6.5117188E0,6.989105E2,6.2326874E1,6.975171E1,2.3236938E1,1.07109375E1,4.1310787E0,1.2788752E1,6.07619E1,0E0,2.8730469E0,1.7233643E1,4.488405E0,3.2010315E1,1.3867798E3,6.2246094E0,0E0,5.424308E2,5.5825592E1,9.989531E0,5.6930756E1,1.304629E1,6.5717896E1,1.667456E1,1.6615662E1,0E0,0E0,0E0,0E0,0E0,0E0,0E0,0E0,0E0,0E0,0E0,0E0,0E0,0E0,0E0,0E0,0E0,0E0,0E0,0E0,0E0,0E0,0E0,0E0,0E0,0E0,0E0,0E0,0E0,0E0,0E0,0E0,0E0,0E0,0E0,0E0],"parents":[2147483647,0,0,1,1,2,2,3,3,4,4,5,5,6,6,7,7,9,9,10,10,12,12,13,13,14,14,16,16,17,17,18,18,19,19,20,20,22,22,23,23,24,24,25,25,26,26,27,27,28,28,29,29,30,30,32,32,33,33,34,34,35,35,36,36,37,37,39,39,40,40,41,41,42,42,43,43,44,44,45,45,46,46],"right_children":[2,4,6,8,10,12,14,16,-1,18,20,-1,22,24,26,-1,28,30,32,34,36,-1,38,40,42,44,46,48,50,52,54,-1,56,58,60,62,64,66,-1,68,70,72,74,76,78,80,82,-1,-1,-1,-1,-1,-1,-1,-1,-1,-1,-1,-1,-1,-1,-1,-1,-1,-1,-1,-1,-1,-1,-1,-1,-1,-1,-1,-1,-1,-1,-1,-1,-1,-1,-1,-1],"split_conditions":[2.7471233E-2,9.052199E-1,9.052199E-1,1.1573331E-1,1.5810114E0,6.33285E-2,9.469238E-2,9.813937E-2,8.431306E-2,5.9870068E-2,1.1832714E0,4.021552E-2,1.147348E-1,4.690551E-2,1.3214606E-1,7.8201115E-2,9.48599E-2,2.5099424E-1,1.4813384E-1,1.0090446E-1,1.3573811E0,1.643882E-3,1.22324966E-1,5.5428397E-2,2.2430547E-1,1.1753892E0,6.5572955E-2,1.1952392E-1,8.305179E-2,1.2952814E-1,5.6418575E-2,-1.3448936E-2,8.620995E-2,1.1238902E-1,3.7118655E-2,1.6849834E-1,9.762169E-1,1.0003963E-1,2.5809089E-2,1.1832714E0,3.410105E-1,5.343973E-2,6.517235E-2,8.6063966E-2,6.1020218E-2,2.713036E-1,5.522746E-2,-1.8257105E-1,6.7622036E-2,1.1245235E-1,-6.720867E-2,9.6328594E-2,-3.333373E-2,-9.3622245E-2,2.0385234E-2,-1.8137985E-1,-1.5192251E-2,7.3814474E-2,-1.5645297E-1,-4.7433596E-2,1.35011E-1,2.404303E-3,-1.5451042E-1,-1.0447232E-1,6.666376E-2,-1.2263018E-2,-1.847811E-1,-1.7157929E-1,-4.1973345E-2,-1.1906115E-1,1.02386825E-1,-1.2238331E-1,9.141922E-2,6.488093E-2,1.4260341E-1,-1.0542057E-1,8.1158645E-2,-1.0397597E-1,4.59569E-2,-1.5472652E-1,7.142952E-2,-3.8224657E-3,-1.1903574E-1],"split_indices":[2745,4667,4667,1735,432,1269,2745,2406,0,4894,4894,0,70,3918,2745,0,421,1269,3966,520,3127,0,2413,1269,4894,3051,655,3390,1875,1896,3918,0,1846,2049,2073,1269,1060,2665,0,4894,3127,2800,2916,929,1269,2782,2944,0,0,0,0,0,0,0,0,0,0,0,0,0,0,0,0,0,0,0,0,0,0,0,0,0,0,0,0,0,0,0,0,0,0,0,0],"split_type":[0,0,0,0,0,0,0,0,0,0,0,0,0,0,0,0,0,0,0,0,0,0,0,0,0,0,0,0,0,0,0,0,0,0,0,0,0,0,0,0,0,0,0,0,0,0,0,0,0,0,0,0,0,0,0,0,0,0,0,0,0,0,0,0,0,0,0,0,0,0,0,0,0,0,0,0,0,0,0,0,0,0,0],"sum_hessian":[3.1988133E4,1.924737E4,1.2740764E4,6.9936206E2,1.8548008E4,6.749736E2,1.206579E4,6.978672E2,1.494864E0,1.0941505E3,1.7453857E4,1.4973621E0,6.734762E2,9.982315E3,2.0834744E3,1.4975392E0,6.963696E2,9.9028217E2,1.0386828E2,3.9806348E2,1.7055793E4,1.9962476E0,6.7148E2,9.296386E3,6.8592914E2,1.3080956E3,7.753787E2,6.931292E2,3.2404225E0,3.1429361E1,9.5885284E2,1.2420813E0,1.026262E2,3.9432755E2,3.73594E0,3.561997E2,1.6699594E4,6.702317E2,1.2482587E0,8.937508E3,3.58878E2,1.9437338E1,6.664918E2,2.8667055E1,1.2794286E3,6.1083203E2,1.6454668E2,6.918823E2,1.2469089E0,1.2470953E0,1.993327E0,2.0207441E1,1.1221918E1,9.099172E2,4.8935665E1,1.0138191E2,1.24429E0,2.735478E0,3.9159207E2,1.7441896E0,1.9917504E0,1.3480101E1,3.4271964E2,4.868868E2,1.6212707E4,2.2457054E0,6.67986E2,3.3465326E2,8.6028545E3,1.0965319E1,3.479127E2,1.7693665E1,1.7436726E0,5.524267E2,1.1406512E2,3.4915547E0,2.51755E1,1.2500242E3,2.9404423E1,6.080885E2,2.7435017E0,1.3715668E1,1.5083101E2],"tree_param":{"num_deleted":"0","num_feature":"5000","num_nodes":"83","size_leaf_vector":"1"}},{"base_weights":[2.960214E-4,-2.2691059E-1,8.631894E-1,1.021696E-1,-6.914885E-1,4.9601075E-1,1.198628E0,-1.674306E0,1.786782E-1,-7.754977E-1,1.4738815E-1,-1.4483044E0,5.520866E-1,1.3622254E0,7.305194E-1,-1.6841791E0,3.7132365E-1,-1.6340141E0,2.4320811E-1,-6.929454E-1,-1.5308428E0,2.645442E-1,-1.5390792E0,-1.5078379E0,7.814591E-2,6.5854096E-1,-2.9735053E-1,1.3869637E0,-1.4154117E0,5.252095E-1,1.1820062E0,-1.6904364E0,1.8031044E-3,1.0632855E-1,-3.9849963E-2,-1.6623149E0,8.147945E-1,1.4488165E-1,1.2282546E0,-5.4824406E-1,-1.1476264E0,1.3299482E0,-1.5468186E0,5.4525095E-1,-8.6712494E-2,-1.6052458E0,3.187147E-2,-1.5572534E0,4.05056E-2,7.0821327E-1,-1.0658168E0,-1.0352093E-1,-8.140279E-1,1.4093263E0,-9.366579E-1,7.167396E-2,-1.569318E0,-1.2480445E0,5.708565E-1,1.2321475E0,-2.2795972E-1,3.2799825E-2,-1.6951214E-1,4.021467E-2,-1.6814731E-1,-2.6151752E-2,1.1359775E-1,4.3553947E-3,1.0808551E-1,-1.7148697E-1,1.3380809E-1,-5.97148E-2,7.584742E-2,-1.1884519E-1,-2.761357E-2,1.5885022E-1,2.205146E-2,-2.2503106E-2,-1.5659167E-1,-1.3621752E-1,6.0191E-2,-2.2851966E-2,6.483551E-2,2.9214738E-2,-1.6505098E-1,-6.7209356E-2,7.228439E-2,4.7856178E-2,-1.5991002E-1,7.563619E-2,-1.03831045E-1,-1.2600937E-1,4.687349E-3,-1.8501995E-2,9.5231175E-2,-9.343898E-2,1.0321802E-1,1.4271837E-1,-8.81431E-2,-2.4486072E-3,-1.3263975E-1,2.4337855E-3,-1.6873704E-1,4.3530677E-2,-1.4533053E-1,4.2547323E-2,1.1251308E-1,1.2769806E-1,-3.0755172E-2,-7.061377E-2,6.4157896E-2],"categories":[],"categories_nodes":[],"categories_segments":[],"categories_sizes":[],"default_left":[1,1,0,0,1,0,1,1,0,1,1,1,1,1,0,1,0,1,1,0,0,0,1,1,0,1,0,1,0,0,1,0,0,0,0,0,0,1,0,1,1,1,0,0,1,0,0,0,0,1,1,1,1,1,0,0,0,0,1,1,1,0,0,0,0,0,0,0,0,0,0,0,0,0,0,0,0,0,0,0,0,0,0,0,0,0,0,0,0,0,0,0,0,0,0,0,0,0,0,0,0,0,0,0,0,0,0,0,0,0,0],"id":2,"left_children":[1,3,5,7,9,11,13,15,17,19,21,23,25,27,29,31,33,35,37,39,41,43,45,47,-1,49,51,53,55,57,59,61,-1,-1,-1,63,65,67,69,71,73,75,77,79,81,83,85,87,-1,89,91,93,95,97,99,-1,101,103,105,107,109,-1,-1,-1,-1,-1,-1,-1,-1,-1,-1,-1,-1,-1,-1,-1,-1,-1,-1,-1,-1,-1,-1,-1,-1,-1,-1,-1,-1,-1,-1,-1,-1,-1,-1,-1,-1,-1,-1,-1,-1,-1,-1,-1,-1,-1,-1,-1,-1,-1,-1],"loss_changes":[6.239783E3,3.8516821E3,8.164321E2,2.0047826E3,7.362886E2,3.462746E2,2.6442822E2,1.2925781E1,1.6543893E3,5.910288E2,1.8845168E2,1.3006058E1,2.7875842E2,1.783623E2,8.2780914E1,6.488159E0,2.4184651E0,3.5049316E1,1.32237E3,5.626709E2,4.4775635E1,8.78775E1,6.492386E0,8.866425E0,0E0,2.3525403E2,3.43423E1,1.3356348E2,8.723721E0,5.0921234E1,2.0108276E1,6.2683105E0,0E0,0E0,0E0,1.9699097E1,2.4492908E0,1.177544E3,4.0283398E2,4.1561462E2,7.31792E1,1.2928896E0,2.3123291E1,5.434236E1,4.1481342E1,5.5907745E0,2.1810226E0,8.018341E0,0E0,2.2461768E2,1.6716362E1,2.1785395E1,2.177103E1,1.04390625E2,8.805626E0,0E0,4.1633415E0,6.11981E0,4.8306656E1,1.9098358E1,4.808445E0,0E0,0E0,0E0,0E0,0E0,0E0,0E0,0E0,0E0,0E0,0E0,0E0,0E0,0E0,0E0,0E0,0E0,0E0,0E0,0E0,0E0,0E0,0E0,0E0,0E0,0E0,0E0,0E0,0E0,0E0,0E0,0E0,0E0,0E0,0E0,0E0,0E0,0E0,0E0,0E0,0E0,0E0,0E0,0E0,0E0,0E0,0E0,0E0,0E0,0E0],"parents":[2147483647,0,0,1,1,2,2,3,3,4,4,5,5,6,6,7,7,8,8,9,9,10,10,11,11,12,12,13,13,14,14,15,15,16,16,17,17,18,18,19,19,20,20,21,21,22,22,23,23,25,25,26,26,27,27,28,28,29,29,30,30,31,31,35,35,36,36,37,37,38,38,39,39,40,40,41,41,42,42,43,43,44,44,45,45,46,46,47,47,49,49,50,50,51,51,52,52,53,53,54,54,56,56,57,57,58,58,59,59,60,60],"right_children":[2,4,6,8,10,12,14,16,18,20,22,24,26,28,30,32,34,36,38,40,42,44,46,48,-1,50,52,54,56,58,60,62,-1,-1,-1,64,66,68,70,72,74,76,78,80,82,84,86,88,-1,90,92,94,96,98,100,-1,102,104,106,108,110,-1,-1,-1,-1,-1,-1,-1,-1,-1,-1,-1,-1,-1,-1,-1,-1,-1,-1,-1,-1,-1,-1,-1,-1,-1,-1,-1,-1,-1,-1,-1,-1,-1,-1,-1,-1,-1,-1,-1,-1,-1,-1,-1,-1,-1,-1,-1,-1,-1,-1],"split_conditions":[3.8246132E-2,2.7471233E-2,7.222224E-2,9.052199E-1,4.5367144E-2,2.9652518E-1,2.8115708E-2,9.48599E-2,2.00001E0,4.7557198E-2,9.153902E-2,1.0849286E-1,6.86823E-2,6.0496837E-2,1.1827308E-1,1.275253E-1,8.305179E-2,1.1139601E-1,6.1391E-2,8.522327E-2,2.3623507E-1,5.6292664E-2,6.5826535E-2,7.005537E-2,7.814591E-2,6.548368E-2,1.06072046E-1,7.756941E-2,1.492594E-1,2.0015866E-1,1.6978566E-1,1.16538346E-1,1.8031044E-3,1.0632855E-1,-3.9849963E-2,1.8780479E-1,9.260518E-2,5.770325E-2,8.746571E-1,5.5428397E-2,6.067921E-2,5.293425E-2,1.3292441E-1,2.5500268E-1,5.5033404E-2,1.4523956E-1,9.7168244E-2,1.2648283E-1,4.05056E-2,6.9223724E-2,4.7091726E-2,1.07023306E-1,1.0722065E-1,7.275781E-2,8.556866E-2,7.167396E-2,1.18721515E-1,6.556994E-2,3.8810056E-2,1.0660004E-1,4.5830578E-2,3.2799825E-2,-1.6951214E-1,4.021467E-2,-1.6814731E-1,-2.6151752E-2,1.1359775E-1,4.3553947E-3,1.0808551E-1,-1.7148697E-1,1.3380809E-1,-5.97148E-2,7.584742E-2,-1.1884519E-1,-2.761357E-2,1.5885022E-1,2.205146E-2,-2.2503106E-2,-1.5659167E-1,-1.3621752E-1,6.0191E-2,-2.2851966E-2,6.483551E-2,2.9214738E-2,-1.6505098E-1,-6.7209356E-2,7.228439E-2,4.7856178E-2,-1.5991002E-1,7.563619E-2,-1.03831045E-1,-1.2600937E-1,4.687349E-3,-1.8501995E-2,9.5231175E-2,-9.343898E-2,1.0321802E-1,1.4271837E-1,-8.81431E-2,-2.4486072E-3,-1.3263975E-1,2.4337855E-3,-1.6873704E-1,4.3530677E-2,-1.4533053E-1,4.2547323E-2,1.1251308E-1,1.2769806E-1,-3.0755172E-2,-7.061377E-2,6.4157896E-2],"split_indices":[1625,2745,1625,4667,519,4667,2745,421,605,2572,391,1637,2745,4667,1625,1283,1875,1596,519,2745,4720,2745,4888,154,0,605,2745,3127,2695,3127,2761,2490,0,0,0,421,230,2404,391,1269,2404,1428,1269,4667,1245,939,4121,2889,0,3127,2120,357,107,3842,2846,0,2404,4104,4196,2776,1428,0,0,0,0,0,0,0,0,0,0,0,0,0,0,0,0,0,0,0,0,0,0,0,0,0,0,0,0,0,0,0,0,0,0,0,0,0,0,0,0,0,0,0,0,0,0,0,0,0,0],"split_type":[0,0,0,0,0,0,0,0,0,0,0,0,0,0,0,0,0,0,0,0,0,0,0,0,0,0,0,0,0,0,0,0,0,0,0,0,0,0,0,0,0,0,0,0,0,0,0,0,0,0,0,0,0,0,0,0,0,0,0,0,0,0,0,0,0,0,0,0,0,0,0,0,0,0,0,0,0,0,0,0,0,0,0,0,0,0,0,0,0,0,0,0,0,0,0,0,0,0,0,0,0,0,0,0,0,0,0,0,0,0,0],"sum_hessian":[3.1824686E4,2.5192135E4,6.6325503E3,1.4746994E4,1.0445141E4,3.1676487E3,3.4649016E3,6.0803217E2,1.4138962E4,9.4944E3,9.507395E2,8.810095E1,3.0795476E3,2.5661553E3,8.9874646E2,6.052875E2,2.7446775E0,4.8519373E2,1.3653769E4,8.560712E3,9.336889E2,8.897717E2,6.09678E1,8.612522E1,1.9757277E0,2.7367886E3,3.4275906E2,2.5439985E3,2.2156755E1,6.1929193E2,2.7945456E2,6.030775E2,2.2099688E0,1.2446798E0,1.4999976E0,4.7996793E2,5.2257905E0,1.2415601E4,1.2381672E3,6.4956797E3,2.0650322E3,4.7283845E0,9.289605E2,4.9424417E2,3.9552756E2,5.848274E1,2.4850593E0,8.413763E1,1.9875978E0,2.6607322E3,7.605643E1,2.5012569E2,9.263336E1,2.5201382E3,2.3860397E1,1.2454776E0,2.0911278E1,1.4880653E1,6.0441125E2,2.6997968E2,9.474896E0,1.2367574E0,6.0184076E2,4.2293453E0,4.757386E2,1.2437257E0,3.9820647E0,1.120374E4,1.2118608E3,4.4015903E1,1.1941514E3,6.261872E3,2.3380766E2,1.9722761E3,9.275598E1,3.4845057E0,1.2438788E0,1.3413148E1,9.1554736E2,1.3593032E1,4.8065115E2,3.3214096E2,6.338658E1,1.2355644E0,5.7247177E1,1.2444905E0,1.2405688E0,1.4844444E0,8.265318E1,2.5899001E3,7.083213E1,6.463807E1,1.1418354E1,2.3296782E2,1.7157867E1,8.742749E1,5.2058725E0,2.5010186E3,1.9119469E1,7.4610033E0,1.6399393E1,1.496947E0,1.941433E1,1.4954729E0,1.338518E1,4.802197E2,1.2419156E2,2.625066E2,7.4730783E0,6.234389E0,3.2405076E0],"tree_param":{"num_deleted":"0","num_feature":"5000","num_nodes":"111","size_leaf_vector":"1"}},{"base_weights":[-1.8239327E-3,2.9773873E-1,-4.529051E-1,-1.5196313E0,3.635273E-1,-1.5969537E0,-3.9066568E-1,-1.8330516E-2,-1.5289843E0,-1.3927925E0,4.175754E-1,-1.2842377E-1,-1.6039448E0,-2.2215866E-1,-8.260721E-1,6.1443126E-1,-9.702432E-2,-1.5346876E0,6.364908E-2,-1.1191132E0,-1.6525835E0,-1.4655102E0,4.6747383E-1,-9.338745E-2,5.1738042E-2,4.1893862E-2,-1.6083857E0,-3.130568E-1,5.249753E-1,-7.062166E-1,-1.2294588E0,1.2896541E-1,-2.4501411E-2,6.962279E-2,-1.5399691E0,-1.1639048E0,6.731145E-1,5.5500066E-1,-1.6764178E0,-1.5280154E0,-8.8217527E-1,-7.0228946E-1,5.352493E-1,1.7209347E-2,-1.6126958E0,-4.0260267E-1,4.3248862E-1,7.767054E-1,1.03151E-1,-7.425247E-1,6.2295574E-1,5.709265E-1,-1.2440922E0,3.698004E-2,-1.545488E-1,1.0064026E-1,-1.2012073E-1,1.3747542E-1,-3.4761414E-2,-2.8483743E-2,1.0899333E-1,6.1137557E-2,-1.6908011E-1,-1.5429229E-1,1.9176794E-2,9.499818E-2,-9.741556E-2,7.836696E-2,-7.55062E-2,-1.8474847E-1,5.684603E-2,1.3338381E-2,-1.6169079E-1,-4.5086328E-2,7.864484E-2,-1.362243E-1,5.4634582E-2,-1.3927838E-1,8.15659E-2,-8.7975204E-2,2.2573989E-2,-8.0160476E-2,3.1414472E-3,7.873496E-2,-1.0151006E-1,-8.352664E-2,1.4052095E-1,-3.1151662E-3,-1.267267E-1],"categories":[],"categories_nodes":[],"categories_segments":[],"categories_sizes":[],"default_left":[1,0,0,0,0,0,0,0,1,0,0,0,0,1,0,1,0,0,0,1,0,1,0,0,0,0,0,1,1,1,0,0,0,0,0,0,0,0,0,1,0,0,0,0,0,1,0,0,0,1,1,0,0,0,0,0,0,0,0,0,0,0,0,0,0,0,0,0,0,0,0,0,0,0,0,0,0,0,0,0,0,0,0,0,0,0,0,0,0],"id":3,"left_children":[1,3,5,7,9,11,13,15,17,19,21,23,25,27,29,31,-1,33,-1,35,37,39,41,-1,-1,-1,43,45,47,49,51,-1,-1,-1,53,55,57,59,61,63,65,67,69,-1,71,73,75,77,79,81,83,85,87,-1,-1,-1,-1,-1,-1,-1,-1,-1,-1,-1,-1,-1,-1,-1,-1,-1,-1,-1,-1,-1,-1,-1,-1,-1,-1,-1,-1,-1,-1,-1,-1,-1,-1,-1,-1],"loss_changes":[4.2620435E3,2.26671E3,8.956472E2,9.272461E0,1.7370063E3,6.458252E0,8.7577515E2,3.6758676E0,9.106201E0,3.6995605E1,1.6682566E3,2.6483867E0,6.4765625E0,5.848378E2,1.6017627E2,2.4536557E0,0E0,8.810791E0,0E0,2.2390686E1,1.5567627E1,1.5364868E1,1.3711272E3,0E0,0E0,0E0,5.225586E0,5.1262585E2,9.9116E1,1.2450415E2,2.077649E1,0E0,0E0,0E0,7.481079E0,2.2497894E1,5.631854E0,1.9828925E0,1.0098145E1,1.0875061E1,8.800041E0,7.487909E1,1.294353E3,0E0,4.9466553E0,3.936322E2,1.6903458E2,5.0564636E1,4.2405582E1,1.1444592E2,1.934979E1,9.181911E0,2.1206299E1,0E0,0E0,0E0,0E0,0E0,0E0,0E0,0E0,0E0,0E0,0E0,0E0,0E0,0E0,0E0,0E0,0E0,0E0,0E0,0E0,0E0,0E0,0E0,0E0,0E0,0E0,0E0,0E0,0E0,0E0,0E0,0E0,0E0,0E0,0E0,0E0],"parents":[2147483647,0,0,1,1,2,2,3,3,4,4,5,5,6,6,7,7,8,8,9,9,10,10,11,11,12,12,13,13,14,14,15,15,17,17,19,19,20,20,21,21,22,22,26,26,27,27,28,28,29,29,30,30,34,34,35,35,36,36,37,37,38,38,39,39,40,40,41,41,42,42,44,44,45,45,46,46,47,47,48,48,49,49,50,50,51,51,52,52],"right_children":[2,4,6,8,10,12,14,16,18,20,22,24,26,28,30,32,-1,34,-1,36,38,40,42,-1,-1,-1,44,46,48,50,52,-1,-1,-1,54,56,58,60,62,64,66,68,70,-1,72,74,76,78,80,82,84,86,88,-1,-1,-1,-1,-1,-1,-1,-1,-1,-1,-1,-1,-1,-1,-1,-1,-1,-1,-1,-1,-1,-1,-1,-1,-1,-1,-1,-1,-1,-1,-1,-1,-1,-1,-1,-1],"split_conditions":[2.7471233E-2,9.052199E-1,9.052199E-1,1.2665203E-1,2.00001E0,8.9076616E-2,7.7274546E-2,6.0344145E-2,1.4674576E-1,1.1365797E-1,1.1832714E0,8.7114155E-2,1.323018E-1,4.1236315E-2,1.3214606E-1,3.5722084E-2,-9.702432E-2,1.6287081E-1,6.364908E-2,9.5972866E-2,2.1079837E-1,4.696388E-2,1.5810114E0,-9.338745E-2,5.1738042E-2,4.1893862E-2,9.18509E-2,3.9542153E-2,3.3680547E-2,6.254298E-2,2.1957871E-1,1.2896541E-1,-2.4501411E-2,6.962279E-2,1.0267431E-1,8.9281574E-2,6.9386765E-2,5.099953E-2,3.362628E-1,9.519442E-2,3.371721E-2,2.3669913E-1,1.0818934E0,1.7209347E-2,8.696307E-2,5.5428397E-2,3.611584E-1,1.9235903E-1,1.7707682E-1,5.080882E-2,9.830649E-2,1.3799867E-1,1.0644327E0,3.698004E-2,-1.545488E-1,1.0064026E-1,-1.2012073E-1,1.3747542E-1,-3.4761414E-2,-2.8483743E-2,1.0899333E-1,6.1137557E-2,-1.6908011E-1,-1.5429229E-1,1.9176794E-2,9.499818E-2,-9.741556E-2,7.836696E-2,-7.55062E-2,-1.8474847E-1,5.684603E-2,1.3338381E-2,-1.6169079E-1,-4.5086328E-2,7.864484E-2,-1.362243E-1,5.4634582E-2,-1.3927838E-1,8.15659E-2,-8.7975204E-2,2.2573989E-2,-8.0160476E-2,3.1414472E-3,7.873496E-2,-1.0151006E-1,-8.352664E-2,1.4052095E-1,-3.1151662E-3,-1.267267E-1],"split_indices":[2745,4667,4667,3644,605,3554,2745,4174,4407,605,4894,4950,2924,2404,2745,3856,0,1637,0,1276,1596,519,432,0,0,0,3804,519,4626,1269,473,0,0,0,3363,1339,1896,1428,1628,4445,1707,2017,1063,0,617,1269,391,422,1060,519,4626,4626,2782,0,0,0,0,0,0,0,0,0,0,0,0,0,0,0,0,0,0,0,0,0,0,0,0,0,0,0,0,0,0,0,0,0,0,0,0],"split_type":[0,0,0,0,0,0,0,0,0,0,0,0,0,0,0,0,0,0,0,0,0,0,0,0,0,0,0,0,0,0,0,0,0,0,0,0,0,0,0,0,0,0,0,0,0,0,0,0,0,0,0,0,0,0,0,0,0,0,0,0,0,0,0,0,0,0,0,0,0,0,0,0,0,0,0,0,0,0,0,0,0,0,0,0,0,0,0,0,0],"sum_hessian":[3.1539004E4,1.89528E4,1.2586202E4,6.6134827E2,1.8291453E4,6.481232E2,1.1938079E4,4.112977E0,6.572353E2,5.453475E2,1.7746105E4,3.1625733E0,6.4496063E2,8.608145E3,3.3299346E3,2.6836276E0,1.4293492E0,6.557994E2,1.4359223E0,2.681597E2,2.7718777E2,4.5736908E2,1.7288736E4,1.2088386E0,1.9537348E0,1.208355E0,6.437523E2,7.6749697E3,9.331745E2,2.5692896E3,7.606451E2,1.2225593E0,1.4610684E0,1.2398716E0,6.545595E2,2.6196326E2,6.1964374E0,2.722679E0,2.744651E2,4.1164166E2,4.572741E1,9.4632794E2,1.6342409E4,1.4606035E0,6.422917E2,6.8524023E3,8.2256744E2,5.838887E2,3.4928583E2,2.5014019E3,6.7887856E1,5.8261514E0,7.548189E2,1.6959035E0,6.528636E2,3.9874809E0,2.5797577E2,3.4666545E0,2.7297828E0,1.2413305E0,1.4813484E0,1.4554495E0,2.7300964E2,4.082061E2,3.435597E0,1.7400095E0,4.39874E1,3.1980385E1,9.143476E2,2.2390137E2,1.6118508E4,1.4718442E0,6.408198E2,6.585725E3,2.6667722E2,4.841632E1,7.741511E2,9.685885E0,5.7420276E2,3.8047676E1,3.1123816E2,2.3239622E3,1.7743965E2,6.2168068E1,5.7197876E0,2.169037E0,3.6571143E0,1.4195316E1,7.406236E2],"tree_param":{"num_deleted":"0","num_feature":"5000","num_nodes":"89","size_leaf_vector":"1"}},{"base_weights":[3.2098342E-3,-2.0034525E-1,7.563283E-1,5.113631E-2,-6.022425E-1,4.230227E-1,1.0558403E0,-1.4401656E0,1.1322844E-1,-6.395024E-1,8.966076E-1,-1.2589889E0,4.7277427E-1,1.2432806E0,6.990233E-1,7.0838654E-1,-1.4506654E0,1.53131075E-2,9.1353494E-1,-5.6813663E-1,-1.3332696E0,1.0160156E0,-8.478004E-1,-1.3105705E0,5.61569E-2,5.1551247E-1,-1.1626226E0,1.2633022E0,-1.2708575E0,7.8276986E-1,-4.116398E-1,1.4289825E-1,-4.283555E-2,-1.4600707E0,1.492363E-1,-5.086422E-2,1.2804686E0,-1.6061369E0,1.027904E0,-5.9951293E-1,1.0336524E0,1.4521554E-1,-1.3517729E0,1.0754588E0,-8.766973E-1,-1.2259291E0,3.8054472E-1,-7.554197E-4,-1.3627279E0,5.595414E-1,-1.0521747E0,-5.889837E-1,-1.3947461E0,1.2819148E0,-1.0273219E0,5.3037545E-3,-1.5042572E0,8.253148E-1,-8.55755E-1,-8.08589E-1,4.1414952E-1,3.719327E-2,-1.4678444E-1,7.7228315E-2,-6.6012606E-2,-1.4107944E-2,8.886177E-2,1.4678907E-1,8.470299E-2,-1.6555175E-1,5.773239E-3,-9.875171E-2,1.0769583E-1,-6.375985E-2,6.358155E-2,-1.3734834E-1,1.0832778E-1,-8.827779E-2,-1.4028077E-1,1.14693515E-1,-1.4746346E-2,-1.3016908E-1,4.3732923E-2,-1.4345041E-1,1.7827597E-2,-6.047861E-2,1.06595926E-1,-7.964156E-2,9.4330855E-2,-1.3940988E-1,4.640139E-2,5.9413742E-2,-1.2300797E-1,4.2686522E-2,-1.1527455E-1,1.254461E-1,-8.2796924E-2,-1.4629649E-1,3.584968E-3,1.2928732E-1,-1.8619138E-1,-1.740175E-1,-2.2865532E-2,-6.4779446E-2,7.7751E-2,-1.6202545E-1,-6.259408E-3,-8.880691E-3,8.9169346E-2,1.8165326E-2,-1.20113626E-1,6.091857E-2,-9.22961E-2,6.125439E-2,-1.0770946E-1],"categories":[],"categories_nodes":[],"categories_segments":[],"categories_sizes":[],"default_left":[1,1,0,0,1,0,1,0,1,1,1,1,1,1,1,1,1,1,0,1,0,1,1,0,0,1,1,1,0,1,0,0,0,0,0,1,1,1,0,1,0,0,0,1,1,1,0,0,1,1,0,0,1,1,0,0,1,0,0,0,1,0,0,0,0,0,0,0,0,0,0,0,0,0,0,0,0,0,0,0,0,0,0,0,0,0,0,0,0,0,0,0,0,0,0,0,0,0,0,0,0,0,0,0,0,0,0,0,0,0,0,0,0,0,0],"id":4,"left_children":[1,3,5,7,9,11,13,15,17,19,21,23,25,27,29,31,33,35,37,39,41,43,45,47,-1,49,51,53,55,57,59,-1,-1,61,63,65,67,69,71,73,75,-1,77,79,81,83,85,87,89,91,93,95,97,99,101,103,105,107,109,111,113,-1,-1,-1,-1,-1,-1,-1,-1,-1,-1,-1,-1,-1,-1,-1,-1,-1,-1,-1,-1,-1,-1,-1,-1,-1,-1,-1,-1,-1,-1,-1,-1,-1,-1,-1,-1,-1,-1,-1,-1,-1,-1,-1,-1,-1,-1,-1,-1,-1,-1,-1,-1,-1,-1],"loss_changes":[4.8118735E3,2.4974404E3,6.6627344E2,1.4076589E3,5.3171875E2,2.6525476E2,2.3435278E2,1.4735718E1,1.1435581E3,4.587373E2,4.9000427E1,9.293976E0,2.1535004E2,1.1760474E2,1.1319647E2,3.5830584E0,9.3220215E0,1.0887855E3,4.6007983E2,4.2363013E2,4.6538452E1,2.532994E1,7.596835E0,6.0737762E0,0E0,2.073122E2,9.638817E0,9.881079E1,5.5794334E0,7.939441E1,2.8440676E1,0E0,0E0,9.113281E0,2.750393E0,1.0475493E3,5.12688E1,5.802826E0,1.5157031E2,3.8881836E2,2.0847885E1,0E0,1.9338623E1,1.8578186E1,4.5628533E0,3.7629757E0,3.6003945E0,4.060735E0,5.5475006E0,1.8113531E2,1.27137985E1,1.1771352E1,5.439171E0,8.05686E1,1.0411711E1,2.46478E0,2.5435753E0,6.686853E1,1.0629822E1,1.00069275E1,9.090557E0,0E0,0E0,0E0,0E0,0E0,0E0,0E0,0E0,0E0,0E0,0E0,0E0,0E0,0E0,0E0,0E0,0E0,0E0,0E0,0E0,0E0,0E0,0E0,0E0,0E0,0E0,0E0,0E0,0E0,0E0,0E0,0E0,0E0,0E0,0E0,0E0,0E0,0E0,0E0,0E0,0E0,0E0,0E0,0E0,0E0,0E0,0E0,0E0,0E0,0E0,0E0,0E0,0E0,0E0],"parents":[2147483647,0,0,1,1,2,2,3,3,4,4,5,5,6,6,7,7,8,8,9,9,10,10,11,11,12,12,13,13,14,14,15,15,16,16,17,17,18,18,19,19,20,20,21,21,22,22,23,23,25,25,26,26,27,27,28,28,29,29,30,30,33,33,34,34,35,35,36,36,37,37,38,38,39,39,40,40,42,42,43,43,44,44,45,45,46,46,47,47,48,48,49,49,50,50,51,51,52,52,53,53,54,54,55,55,56,56,57,57,58,58,59,59,60,60],"right_children":[2,4,6,8,10,12,14,16,18,20,22,24,26,28,30,32,34,36,38,40,42,44,46,48,-1,50,52,54,56,58,60,-1,-1,62,64,66,68,70,72,74,76,-1,78,80,82,84,86,88,90,92,94,96,98,100,102,104,106,108,110,112,114,-1,-1,-1,-1,-1,-1,-1,-1,-1,-1,-1,-1,-1,-1,-1,-1,-1,-1,-1,-1,-1,-1,-1,-1,-1,-1,-1,-1,-1,-1,-1,-1,-1,-1,-1,-1,-1,-1,-1,-1,-1,-1,-1,-1,-1,-1,-1,-1,-1,-1,-1,-1,-1,-1],"split_conditions":[3.5640746E-2,3.164306E-2,6.991144E-2,9.052199E-1,5.9666507E-2,2.3896988E-1,2.6902482E-2,1.0888114E-1,4.4232506E-2,4.7557198E-2,5.5470668E-2,1.0849286E-1,6.2429048E-2,6.8221495E-2,1.0199101E-1,2.929172E-2,9.48599E-2,5.3927623E-2,8.746571E-1,5.923754E-2,2.3623507E-1,7.2940126E-2,6.0990606E-2,1.3532089E-1,5.61569E-2,5.917885E-2,3.9676122E-2,6.2130686E-2,1.10307574E-1,6.6990204E-2,1.1827308E-1,1.4289825E-1,-4.283555E-2,1.4182258E-1,7.5711E-2,6.334055E-2,2.574228E-2,5.546423E-2,2.3947947E-1,6.213427E-2,2.9060522E-1,1.4521554E-1,1.3821235E-1,5.269433E-2,7.6461434E-2,4.8846155E-2,6.327299E-2,1.0051231E-1,9.207734E-2,5.6925647E-2,1.0061107E-1,1.0407148E-1,6.3861154E-2,8.89948E-2,9.108078E-2,4.7975898E-2,7.306009E-2,1.5810114E0,1.2497194E-1,1.5857275E-1,6.73677E-2,3.719327E-2,-1.4678444E-1,7.7228315E-2,-6.6012606E-2,-1.4107944E-2,8.886177E-2,1.4678907E-1,8.470299E-2,-1.6555175E-1,5.773239E-3,-9.875171E-2,1.0769583E-1,-6.375985E-2,6.358155E-2,-1.3734834E-1,1.0832778E-1,-8.827779E-2,-1.4028077E-1,1.14693515E-1,-1.4746346E-2,-1.3016908E-1,4.3732923E-2,-1.4345041E-1,1.7827597E-2,-6.047861E-2,1.06595926E-1,-7.964156E-2,9.4330855E-2,-1.3940988E-1,4.640139E-2,5.9413742E-2,-1.2300797E-1,4.2686522E-2,-1.1527455E-1,1.254461E-1,-8.2796924E-2,-1.4629649E-1,3.584968E-3,1.2928732E-1,-1.8619138E-1,-1.740175E-1,-2.2865532E-2,-6.4779446E-2,7.7751E-2,-1.6202545E-1,-6.259408E-3,-8.880691E-3,8.9169346E-2,1.8165326E-2,-1.20113626E-1,6.091857E-2,-9.22961E-2,6.125439E-2,-1.0770946E-1],"split_indices":[1625,2745,1625,4667,4866,4667,655,3312,519,2572,2572,1637,4894,4667,1629,3856,421,1269,391,161,4720,605,4950,154,0,3127,4174,605,2657,3127,1625,0,0,3788,2073,2404,655,4897,4894,1269,3842,0,4002,432,596,323,655,2745,1408,3842,2323,2451,3918,422,1625,4287,323,432,4196,2362,4399,0,0,0,0,0,0,0,0,0,0,0,0,0,0,0,0,0,0,0,0,0,0,0,0,0,0,0,0,0,0,0,0,0,0,0,0,0,0,0,0,0,0,0,0,0,0,0,0,0,0,0,0,0,0],"split_type":[0,0,0,0,0,0,0,0,0,0,0,0,0,0,0,0,0,0,0,0,0,0,0,0,0,0,0,0,0,0,0,0,0,0,0,0,0,0,0,0,0,0,0,0,0,0,0,0,0,0,0,0,0,0,0,0,0,0,0,0,0,0,0,0,0,0,0,0,0,0,0,0,0,0,0,0,0,0,0,0,0,0,0,0,0,0,0,0,0,0,0,0,0,0,0,0,0,0,0,0,0,0,0,0,0,0,0,0,0,0,0,0,0,0,0],"sum_hessian":[3.1386393E4,2.4708768E4,6.6776245E3,1.5199049E4,9.509719E3,3.1616553E3,3.5159695E3,6.066479E2,1.4592401E4,9.27961E3,2.3010849E2,9.013246E1,3.0715227E3,2.3034526E3,1.212517E3,2.6269457E0,6.0402094E2,1.3002589E4,1.5898125E3,8.415728E3,8.638824E2,2.1575706E2,1.4351419E1,8.792152E1,2.2109418E0,2.9939656E3,7.755724E1,2.2857473E3,1.77052E1,1.1277754E3,8.474163E1,1.4504194E0,1.1765263E0,6.005777E2,3.4432268E0,1.2357174E4,6.454151E2,6.846277E1,1.5213496E3,8.254658E3,1.6106915E2,5.1895084E0,8.586929E2,2.096059E2,6.151163E0,1.0974914E1,3.3765063E0,3.405847E0,8.451567E1,2.9128018E3,8.1163826E1,2.336168E1,5.4195564E1,2.267761E3,1.7986485E1,2.8885794E0,1.4816621E1,1.099717E3,2.8058306E1,5.724522E1,2.749641E1,2.3396926E0,5.9823804E2,1.971432E0,1.4717948E0,1.1275296E4,1.081878E3,4.489145E2,1.9650061E2,6.649436E1,1.9684105E0,3.569437E1,1.4856553E3,8.008246E3,2.4641232E2,2.714661E0,1.5835449E2,8.6066124E1,7.726267E2,1.9809023E2,1.1515683E1,4.6549935E0,1.4961692E0,9.536781E0,1.4381318E0,1.4334528E0,1.9430536E0,1.933057E0,1.4727901E0,8.332161E1,1.1940584E0,2.858216E3,5.458552E1,4.9609814E0,7.620284E1,2.193412E0,2.1168266E1,5.170725E1,2.4883137E0,2.2604705E3,7.29046E0,8.880928E0,9.1055565E0,1.6522721E0,1.2363073E0,1.359859E1,1.2180309E0,7.442655E1,1.0252905E3,7.1265664E0,2.093174E1,3.9502974E0,5.329492E1,2.4787884E1,2.708528E0],"tree_param":{"num_deleted":"0","num_feature":"5000","num_nodes":"115","size_leaf_vector":"1"}},{"base_weights":[2.475961E-4,-1.8172617E-1,7.089004E-1,4.5651104E-2,-5.4967767E-1,4.4211733E-1,1.046131E0,-1.0694433E0,1.22370385E-1,-1.2446663E0,-4.7924072E-1,4.8672807E-1,-1.293447E0,1.1781515E0,6.5864414E-1,1.4329973E-1,-1.2674347E0,-1.3281033E0,1.7777427E-1,1.3169519E0,-1.2657422E0,-3.6977524E-1,-9.7225493E-1,7.097393E-1,1.6878837E-1,-1.3295687E0,1.3200327E-2,1.2001747E0,-7.9762065E-1,7.109648E-1,-1.3127741E0,-2.8062898E-1,1.1076032E0,-1.2119742E-1,-1.3100595E0,5.059786E-1,-1.3510116E0,-8.2758397E-1,2.4875052E-1,1.5263405E-1,1.312454E-2,1.1382431E0,-1.2745091E0,-4.395655E-1,3.576142E-1,5.415685E-1,-9.963667E-1,7.7136666E-1,-3.888694E-1,2.1459255E-1,-1.7372531E0,-1.377058E0,-2.109979E-1,1.2153649E0,-1.184011E0,8.78574E-2,-9.500961E-1,5.867326E-1,1.2772139E0,-1.4812621E0,6.1900515E-2,-5.5449016E-2,9.97109E-2,1.20680764E-1,-1.2255987E-1,-3.9454814E-2,9.398199E-2,-1.21760726E-1,-1.78767E-1,1.4084758E-1,-2.6713533E-2,1.350707E-2,-1.3776246E-1,-9.004862E-2,-6.208772E-3,2.8892076E-2,-1.4608128E-1,1.3889408E-1,3.3908557E-2,-9.00491E-3,-1.293744E-1,1.0254794E-1,-4.7488973E-2,4.562668E-2,-1.268534E-1,-9.811226E-2,7.667234E-2,3.613239E-2,-1.0181429E-1,-9.269643E-2,8.074483E-2,-1.4175753E-1,-2.2766883E-2,4.197767E-2,-9.5928395E-3,-1.8169653E-1,-4.1977145E-2,-1.4066932E-1,-4.373505E-3,7.158274E-2,-8.2013704E-2,-1.0902001E-1,1.228812E-1,-1.3638204E-1,1.8277274E-2,1.2769982E-2,-1.1554631E-1,6.4394675E-2,-5.703908E-2,1.328635E-1,-8.595466E-3,2.797929E-2,-1.6601554E-1],"categories":[],"categories_nodes":[],"categories_segments":[],"categories_sizes":[],"default_left":[1,1,0,0,0,1,1,0,0,0,0,1,1,1,1,1,0,0,0,1,0,1,0,1,1,1,0,1,0,0,1,1,1,0,1,0,0,1,1,0,0,0,0,0,1,0,0,0,0,1,1,1,0,0,1,0,0,1,1,0,0,0,0,0,0,0,0,0,0,0,0,0,0,0,0,0,0,0,0,0,0,0,0,0,0,0,0,0,0,0,0,0,0,0,0,0,0,0,0,0,0,0,0,0,0,0,0,0,0,0,0,0,0],"id":5,"left_children":[1,3,5,7,9,11,13,15,17,19,21,23,25,27,29,31,33,35,37,39,41,43,45,47,49,51,-1,53,55,57,59,61,63,65,67,69,71,73,75,-1,-1,77,79,81,83,85,87,89,91,93,95,97,99,101,103,-1,105,107,109,111,-1,-1,-1,-1,-1,-1,-1,-1,-1,-1,-1,-1,-1,-1,-1,-1,-1,-1,-1,-1,-1,-1,-1,-1,-1,-1,-1,-1,-1,-1,-1,-1,-1,-1,-1,-1,-1,-1,-1,-1,-1,-1,-1,-1,-1,-1,-1,-1,-1,-1,-1,-1,-1],"loss_changes":[4.007538E3,2.068789E3,5.7079736E2,1.3076539E3,4.6172607E2,2.752426E2,1.4265576E2,2.364414E2,1.1494841E3,4.855371E1,4.625121E2,2.451148E2,4.7661285E0,9.189966E1,7.4660645E1,5.7130478E1,4.1173462E1,2.279535E1,9.831881E2,1.6808653E0,1.9615479E1,3.5652856E2,5.7397705E1,1.3790894E2,1.2497214E2,4.333191E0,0E0,7.631152E1,6.876751E0,4.827893E1,7.0460625E0,3.461645E1,1.135025E1,9.487195E0,3.3833862E1,5.41372E0,2.0753723E1,5.065149E1,8.8411414E2,0E0,0E0,2.6229525E-1,1.9459106E1,3.320039E2,9.926076E1,9.347175E0,4.5710693E1,1.1870203E2,1.7690067E1,8.889434E1,2.766121E0,3.230606E0,3.2551532E0,6.5043945E1,3.5903568E0,0E0,5.0502834E0,3.8329132E1,8.844421E0,6.0139656E0,0E0,0E0,0E0,0E0,0E0,0E0,0E0,0E0,0E0,0E0,0E0,0E0,0E0,0E0,0E0,0E0,0E0,0E0,0E0,0E0,0E0,0E0,0E0,0E0,0E0,0E0,0E0,0E0,0E0,0E0,0E0,0E0,0E0,0E0,0E0,0E0,0E0,0E0,0E0,0E0,0E0,0E0,0E0,0E0,0E0,0E0,0E0,0E0,0E0,0E0,0E0,0E0,0E0],"parents":[2147483647,0,0,1,1,2,2,3,3,4,4,5,5,6,6,7,7,8,8,9,9,10,10,11,11,12,12,13,13,14,14,15,15,16,16,17,17,18,18,19,19,20,20,21,21,22,22,23,23,24,24,25,25,27,27,28,28,29,29,30,30,31,31,32,32,33,33,34,34,35,35,36,36,37,37,38,38,41,41,42,42,43,43,44,44,45,45,46,46,47,47,48,48,49,49,50,50,51,51,52,52,53,53,54,54,56,56,57,57,58,58,59,59],"right_children":[2,4,6,8,10,12,14,16,18,20,22,24,26,28,30,32,34,36,38,40,42,44,46,48,50,52,-1,54,56,58,60,62,64,66,68,70,72,74,76,-1,-1,78,80,82,84,86,88,90,92,94,96,98,100,102,104,-1,106,108,110,112,-1,-1,-1,-1,-1,-1,-1,-1,-1,-1,-1,-1,-1,-1,-1,-1,-1,-1,-1,-1,-1,-1,-1,-1,-1,-1,-1,-1,-1,-1,-1,-1,-1,-1,-1,-1,-1,-1,-1,-1,-1,-1,-1,-1,-1,-1,-1,-1,-1,-1,-1,-1,-1],"split_conditions":[3.885256E-2,3.164306E-2,8.025226E-2,8.866785E-1,8.866785E-1,6.262044E-2,2.8641403E-2,8.985379E-1,2.00001E0,2.3623507E-1,9.6552745E-2,2.8641403E-2,7.822665E-2,7.756941E-2,1.2301025E-1,8.4313445E-2,1.6152415E-1,3.257565E-1,1.5810114E0,4.9525883E-2,2.803112E-1,5.230134E-2,1.1753892E0,5.7798438E-2,7.5539164E-2,7.935422E-2,1.3200327E-2,6.756671E-2,4.6067438E-1,1.4965089E-1,7.271589E-2,9.653566E-2,1.1621294E-1,1.0867941E-1,7.5091325E-2,1.3363217E-1,1.9993715E-1,4.2734396E-2,5.917885E-2,1.5263405E-1,1.312454E-2,7.5580694E-2,1.3292441E-1,1.1753892E0,9.920119E-2,9.227191E-2,2.4389565E-1,3.5538408E-1,1.14247784E-1,3.3906717E-2,6.138003E-2,8.344745E-2,4.4473596E-2,1.5105174E0,4.3606687E-2,8.78574E-2,3.8669564E-2,1.12720504E-1,9.5443316E-2,1.0003049E-1,6.1900515E-2,-5.5449016E-2,9.97109E-2,1.20680764E-1,-1.2255987E-1,-3.9454814E-2,9.398199E-2,-1.21760726E-1,-1.78767E-1,1.4084758E-1,-2.6713533E-2,1.350707E-2,-1.3776246E-1,-9.004862E-2,-6.208772E-3,2.8892076E-2,-1.4608128E-1,1.3889408E-1,3.3908557E-2,-9.00491E-3,-1.293744E-1,1.0254794E-1,-4.7488973E-2,4.562668E-2,-1.268534E-1,-9.811226E-2,7.667234E-2,3.613239E-2,-1.0181429E-1,-9.269643E-2,8.074483E-2,-1.4175753E-1,-2.2766883E-2,4.197767E-2,-9.5928395E-3,-1.8169653E-1,-4.1977145E-2,-1.4066932E-1,-4.373505E-3,7.158274E-2,-8.2013704E-2,-1.0902001E-1,1.228812E-1,-1.3638204E-1,1.8277274E-2,1.2769982E-2,-1.1554631E-1,6.4394675E-2,-5.703908E-2,1.328635E-1,-8.595466E-3,2.797929E-2,-1.6601554E-1],"split_indices":[1625,2745,1625,2572,2572,4667,2745,4002,605,4720,2745,2745,140,3127,3866,4901,3918,421,432,4626,1520,519,3051,432,2787,1799,0,4667,1628,1625,4375,1462,4666,519,3424,323,1165,519,3127,0,0,2572,1269,3051,391,703,1208,605,929,4626,4399,1989,1625,1830,389,0,2814,2761,2776,727,0,0,0,0,0,0,0,0,0,0,0,0,0,0,0,0,0,0,0,0,0,0,0,0,0,0,0,0,0,0,0,0,0,0,0,0,0,0,0,0,0,0,0,0,0,0,0,0,0,0,0,0,0],"split_type":[0,0,0,0,0,0,0,0,0,0,0,0,0,0,0,0,0,0,0,0,0,0,0,0,0,0,0,0,0,0,0,0,0,0,0,0,0,0,0,0,0,0,0,0,0,0,0,0,0,0,0,0,0,0,0,0,0,0,0,0,0,0,0,0,0,0,0,0,0,0,0,0,0,0,0,0,0,0,0,0,0,0,0,0,0,0,0,0,0,0,0,0,0,0,0,0,0,0,0,0,0,0,0,0,0,0,0,0,0,0,0,0,0],"sum_hessian":[3.1074736E4,2.4726105E4,6.3486313E3,1.5282865E4,9.443239E3,3.5458337E3,2.8027976E3,9.829537E2,1.4299911E4,8.674634E2,8.575776E3,3.4576775E3,8.815622E1,2.0890112E3,7.137865E2,1.379927E2,8.44961E2,5.2527374E2,1.3774638E4,6.577094E0,8.608863E2,7.019062E3,1.556714E3,2.0314987E3,1.426179E3,8.60431E1,2.11312E0,2.0663706E3,2.2640572E1,6.959555E2,1.7831024E1,9.634593E1,4.164678E1,3.0432596E1,8.145284E2,6.2197604E0,5.1905396E2,9.076319E2,1.2867006E4,5.3457785E0,1.2313161E0,2.659975E0,8.582263E2,6.404929E3,6.14133E2,2.4069695E1,1.5326443E3,1.9238752E3,1.07623405E2,1.3935773E3,3.2601704E1,8.231721E1,3.725893E0,2.053776E3,1.2594888E1,1.490718E0,2.1149853E1,5.7240826E2,1.2354724E2,1.6615086E1,1.2159392E0,7.9806755E1,1.6539171E1,4.0411316E1,1.2354634E0,2.4697819E1,5.734776E0,6.8540247E2,1.291259E2,2.4905665E0,3.7291937E0,9.060064E0,5.099939E2,8.285485E2,7.908338E1,1.2572418E4,2.9458783E2,1.4630167E0,1.1969582E0,1.3805163E1,8.444212E2,1.5013568E2,6.2547935E3,5.79685E2,3.444801E1,2.6681063E0,2.1401588E1,2.3948181E1,1.508696E3,3.9509476E1,1.8843658E3,1.352424E1,9.409916E1,8.3890125E2,5.5467596E2,3.038423E1,2.2174733E0,8.047353E1,1.8436701E0,1.40817E0,2.317723E0,1.1444659E1,2.042331E3,1.1132502E1,1.462386E0,3.4455094E0,1.7704344E1,5.458615E2,2.654671E1,1.1908065E2,4.4665885E0,1.4801557E0,1.513493E1],"tree_param":{"num_deleted":"0","num_feature":"5000","num_nodes":"113","size_leaf_vector":"1"}},{"base_weights":[-1.7147658E-3,-1.5318543E-1,7.267102E-1,-1.3555285E0,-9.873882E-2,9.3684715E-1,3.656186E-1,-1.3605094E0,8.6917005E-2,6.2791324E-1,-1.8551937E-1,9.607497E-1,-1.3499069E0,4.4213364E-1,-6.783156E-1,-1.3650917E0,5.433253E-1,4.9579394E-1,1.1909101E0,-2.709018E-1,5.6341237E-1,-1.6852701E0,9.798156E-1,6.0820263E-2,-1.4396764E0,2.7973112E-1,8.86454E-1,-8.5081124E-1,5.586963E-2,2.6549643E-1,-1.369823E0,-4.4239968E-2,1.2557338E-1,6.9177926E-1,1.12817936E-1,8.6636007E-1,1.4073644E0,-3.250263E-1,9.5134085E-1,9.019313E-1,1.8831325E-1,9.9189006E-2,-1.897138E0,7.860963E-1,1.2159038E0,1.6450921E-2,-1.5049762E0,-1.7244117E0,3.1336477E-1,9.3176484E-1,-8.831856E-1,-9.2460215E-1,8.7763685E-1,2.6456726E-1,-1.1339428E0,-3.3113945E-2,9.187898E-2,3.588892E-2,-1.3730584E-1,7.281136E-2,-1.1089245E-1,-1.7216022E-1,1.5662802E-2,9.1083266E-2,-1.3209115E-1,-1.1915051E-1,1.4245416E-1,-3.8608562E-2,5.4371905E-2,6.940852E-2,1.3843006E-1,5.6129813E-2,1.18334256E-1,3.1202171E-2,-8.265542E-2,-3.4134343E-4,-2.0019965E-1,8.3703056E-2,-3.7977766E-2,-7.901485E-2,1.22914754E-1,-1.5704978E-1,1.2142434E-2,-4.5447294E-2,-1.8413131E-1,3.5333782E-2,-1.2813123E-1,9.5885545E-2,-8.392807E-2,7.3763855E-2,-1.1205246E-1,1.2553735E-1,-9.78799E-2,1.3601826E-1,-3.1147754E-2,5.499911E-2,-1.01117484E-1,-1.5699637E-1,-2.7565144E-3],"categories":[],"categories_nodes":[],"categories_segments":[],"categories_sizes":[],"default_left":[1,0,1,1,0,1,1,1,0,1,1,0,0,0,0,0,0,1,0,1,1,0,0,0,0,0,1,1,1,1,0,0,0,1,0,1,0,1,0,0,1,0,0,1,0,0,0,0,1,1,0,0,0,1,0,0,0,0,0,0,0,0,0,0,0,0,0,0,0,0,0,0,0,0,0,0,0,0,0,0,0,0,0,0,0,0,0,0,0,0,0,0,0,0,0,0,0,0,0],"id":6,"left_children":[1,3,5,7,9,11,13,15,-1,17,19,21,23,25,27,29,31,33,35,37,39,41,43,-1,45,47,49,51,53,55,57,-1,-1,59,61,63,65,67,69,71,73,-1,75,77,79,-1,81,83,85,87,89,91,93,95,97,-1,-1,-1,-1,-1,-1,-1,-1,-1,-1,-1,-1,-1,-1,-1,-1,-1,-1,-1,-1,-1,-1,-1,-1,-1,-1,-1,-1,-1,-1,-1,-1,-1,-1,-1,-1,-1,-1,-1,-1,-1,-1,-1,-1],"loss_changes":[3.3961252E3,1.66797E3,4.0171436E2,1.34140625E1,1.5374135E3,1.8434058E2,1.5612793E2,1.0353638E1,0E0,1.9288257E2,1.3927959E3,1.6887744E2,7.0379868E0,1.3095392E2,1.696941E1,8.844971E0,2.9155655E0,1.5817224E2,3.346051E1,1.2936364E3,2.8287836E2,1.5540802E1,1.4958887E2,0E0,3.7901077E0,9.039408E1,3.981073E1,1.4619202E1,6.84527E0,1.8705363E0,6.625E0,0E0,0E0,9.204419E1,5.772395E1,2.0668945E1,1.4846436E1,9.933263E2,9.1407166E1,1.1162616E2,1.331735E2,0E0,4.4925613E0,1.07855225E2,4.0338135E1,0E0,3.664009E0,2.4522858E0,8.407568E1,2.3574402E1,5.69368E0,1.3553131E1,3.26145E0,9.017151E0,1.9455357E0,0E0,0E0,0E0,0E0,0E0,0E0,0E0,0E0,0E0,0E0,0E0,0E0,0E0,0E0,0E0,0E0,0E0,0E0,0E0,0E0,0E0,0E0,0E0,0E0,0E0,0E0,0E0,0E0,0E0,0E0,0E0,0E0,0E0,0E0,0E0,0E0,0E0,0E0,0E0,0E0,0E0,0E0,0E0,0E0],"parents":[2147483647,0,0,1,1,2,2,3,3,4,4,5,5,6,6,7,7,9,9,10,10,11,11,12,12,13,13,14,14,15,15,16,16,17,17,18,18,19,19,20,20,21,21,22,22,24,24,25,25,26,26,27,27,28,28,29,29,30,30,33,33,34,34,35,35,36,36,37,37,38,38,39,39,40,40,42,42,43,43,44,44,46,46,47,47,48,48,49,49,50,50,51,51,52,52,53,53,54,54],"right_children":[2,4,6,8,10,12,14,16,-1,18,20,22,24,26,28,30,32,34,36,38,40,42,44,-1,46,48,50,52,54,56,58,-1,-1,60,62,64,66,68,70,72,74,-1,76,78,80,-1,82,84,86,88,90,92,94,96,98,-1,-1,-1,-1,-1,-1,-1,-1,-1,-1,-1,-1,-1,-1,-1,-1,-1,-1,-1,-1,-1,-1,-1,-1,-1,-1,-1,-1,-1,-1,-1,-1,-1,-1,-1,-1,-1,-1,-1,-1,-1,-1,-1,-1],"split_conditions":[4.763381E-2,9.052199E-1,3.5680395E-2,9.0150766E-2,1.143224E0,7.953482E-2,1.07843295E-1,1.0585223E-1,8.6917005E-2,6.1793398E-2,4.475496E-2,1.0930107E0,1.499908E-1,9.878149E-2,1.1721247E-1,2.1275242E-1,2.1285847E-1,3.1770702E-2,8.154875E-2,5.5428397E-2,2.6583107E-2,2.1740127E-1,9.15624E-2,6.0820263E-2,1.04436204E-1,2.7511996E-1,8.945934E-2,7.920075E-2,6.9455616E-2,3.4184385E-2,9.182206E-2,-4.4239968E-2,1.2557338E-1,6.0843248E-2,2.4609084E-1,8.5262865E-2,3.248379E-1,9.046398E-2,1.3030604E-1,8.917349E-2,6.4476386E-2,9.9189006E-2,8.2661085E-2,4.952607E-2,2.147359E-1,1.6450921E-2,1.7322907E-1,2.944056E-1,5.6182105E-2,1.1889966E-1,1.3941452E-1,2.2809577E-1,1.0317665E-1,9.519732E-2,1.7000689E-1,-3.3113945E-2,9.187898E-2,3.588892E-2,-1.3730584E-1,7.281136E-2,-1.1089245E-1,-1.7216022E-1,1.5662802E-2,9.1083266E-2,-1.3209115E-1,-1.1915051E-1,1.4245416E-1,-3.8608562E-2,5.4371905E-2,6.940852E-2,1.3843006E-1,5.6129813E-2,1.18334256E-1,3.1202171E-2,-8.265542E-2,-3.4134343E-4,-2.0019965E-1,8.3703056E-2,-3.7977766E-2,-7.901485E-2,1.22914754E-1,-1.5704978E-1,1.2142434E-2,-4.5447294E-2,-1.8413131E-1,3.5333782E-2,-1.2813123E-1,9.5885545E-2,-8.392807E-2,7.3763855E-2,-1.1205246E-1,1.2553735E-1,-9.78799E-2,1.3601826E-1,-3.1147754E-2,5.499911E-2,-1.01117484E-1,-1.5699637E-1,-2.7565144E-3],"split_indices":[1625,4667,655,2675,519,3842,1629,421,0,1245,2404,1064,4384,1625,1625,176,4626,4626,519,1269,655,2675,1625,0,161,1063,3127,1846,4135,655,1477,0,0,3127,1064,3842,3774,1593,1269,2404,691,0,1770,2572,4667,0,1625,771,4667,1861,1740,421,1846,4626,1625,0,0,0,0,0,0,0,0,0,0,0,0,0,0,0,0,0,0,0,0,0,0,0,0,0,0,0,0,0,0,0,0,0,0,0,0,0,0,0,0,0,0,0,0],"split_type":[0,0,0,0,0,0,0,0,0,0,0,0,0,0,0,0,0,0,0,0,0,0,0,0,0,0,0,0,0,0,0,0,0,0,0,0,0,0,0,0,0,0,0,0,0,0,0,0,0,0,0,0,0,0,0,0,0,0,0,0,0,0,0,0,0,0,0,0,0,0,0,0,0,0,0,0,0,0,0,0,0,0,0,0,0,0,0,0,0,0,0,0,0,0,0,0,0,0,0],"sum_hessian":[3.0778115E4,2.5480434E4,5.2976807E3,1.1028274E3,2.4377607E4,3.3478232E3,1.9498577E3,1.1007513E3,2.0760565E0,2.6000444E3,2.1777562E4,3.3137656E3,3.4057594E1,1.8172397E3,1.3261794E2,1.0983906E3,2.3607216E0,2.1073826E3,4.9266193E2,1.9549453E4,2.2281091E3,2.308136E1,3.290684E3,1.23977E0,3.2817825E1,1.3320096E3,4.852302E2,1.072588E2,2.5359138E1,3.0184097E0,1.0953722E3,1.1493837E0,1.2113379E0,1.393475E3,7.139075E2,1.9911407E2,2.9354785E2,1.8721158E4,8.282944E2,1.170423E3,1.0576862E3,1.4226849E0,2.1658674E1,1.8099124E3,1.4807719E3,1.2242019E0,3.1593622E1,2.11552E1,1.3108544E3,4.735779E2,1.1652273E1,1.0331322E2,3.9455807E0,2.2236425E1,3.1227138E0,1.8353527E0,1.1830571E0,1.8408396E0,1.0935314E3,1.3664977E3,2.6977327E1,1.575874E1,6.9814874E2,1.9571822E2,3.3958523E0,1.4785769E0,2.9206927E2,1.749228E4,1.2288795E3,5.2120703E2,3.070873E2,5.3085114E2,6.3957184E2,9.433838E2,1.1430233E2,1.1905283E0,2.0468147E1,1.7344216E3,7.549068E1,9.327062E0,1.4714448E3,3.0403164E1,1.1904587E0,2.1952384E0,1.895996E1,1.2795587E3,3.1295689E1,4.6689468E2,6.68322E0,1.2190747E0,1.0433199E1,1.968546E0,1.0134467E2,2.7043052E0,1.2412755E0,1.8635876E1,3.600549E0,1.9393917E0,1.1833221E0],"tree_param":{"num_deleted":"0","num_feature":"5000","num_nodes":"99","size_leaf_vector":"1"}},{"base_weights":[1.1866126E-3,-1.19085066E-1,7.5971633E-1,4.4829905E-2,-5.333544E-1,3.8101447E-1,9.254743E-1,-1.3635751E0,9.588786E-2,8.782236E-1,-5.644873E-1,-1.5880879E0,4.140071E-1,1.0831571E0,5.561281E-1,-1.4076461E0,-7.825132E-1,-1.2532911E0,1.4425483E-1,-1.3331108E-1,9.4008064E-1,-1.5231719E0,-5.209765E-1,4.7276773E-2,-1.7571503E0,4.6784684E-1,-8.087768E-1,1.1028572E0,-1.3783727E0,-4.3908164E-1,6.3911283E-1,8.690336E-2,-1.4135653E0,1.1919781E-1,-9.016335E-1,7.7057935E-2,-1.2603173E0,2.5166625E-1,-4.5250034E-1,-1.06456816E-1,9.837794E-1,-1.5321202E0,-2.0404091E-1,-4.2425957E-1,-9.4652015E-1,-1.8610417E0,-9.821402E-3,2.8437486E-1,8.4318453E-1,-1.1219845E0,4.7955182E-1,-1.842418E0,1.1149267E0,-6.943974E-3,-1.4771087E0,8.485616E-1,-6.055783E-1,-9.715586E-1,6.7931324E-1,1.46452505E-2,-1.4209422E-1,7.200018E-2,-9.791807E-2,9.262362E-2,-1.266256E-1,2.9754639E-2,-1.1707746E-1,-5.4292858E-2,3.3165075E-2,-1.19755685E-1,1.02256015E-1,-1.5381359E-1,5.7936944E-3,4.6054445E-2,-7.9248816E-2,-4.5733433E-2,8.841169E-2,-7.487059E-2,-1.1284933E-1,-1.9124626E-1,-5.9335656E-2,3.5879545E-2,-7.801183E-2,8.727252E-2,-1.102194E-1,7.6085135E-2,-1.2547389E-1,-7.818149E-2,7.912581E-2,-2.0075043E-1,-6.017978E-2,1.13168515E-1,-9.194271E-2,-1.5724283E-1,-3.0405004E-2,-3.846576E-2,1.1204938E-1,-7.020389E-2,7.8614935E-2,-1.2600276E-1,8.504896E-2,7.0335954E-2,-1.7345451E-1],"categories":[],"categories_nodes":[],"categories_segments":[],"categories_sizes":[],"default_left":[1,1,0,0,0,0,1,1,0,0,0,0,1,1,0,0,0,0,1,0,0,1,0,0,1,0,1,0,0,0,0,0,0,0,0,0,0,1,1,0,0,1,0,1,0,1,0,1,1,0,0,1,1,0,1,0,1,1,1,0,0,0,0,0,0,0,0,0,0,0,0,0,0,0,0,0,0,0,0,0,0,0,0,0,0,0,0,0,0,0,0,0,0,0,0,0,0,0,0,0,0,0,0],"id":7,"left_children":[1,3,5,7,9,11,13,15,17,19,21,23,25,27,29,31,33,35,37,-1,39,41,43,-1,45,47,49,51,53,55,57,-1,59,-1,61,-1,63,65,67,-1,69,71,73,75,77,79,-1,81,83,85,87,89,91,-1,93,95,97,99,101,-1,-1,-1,-1,-1,-1,-1,-1,-1,-1,-1,-1,-1,-1,-1,-1,-1,-1,-1,-1,-1,-1,-1,-1,-1,-1,-1,-1,-1,-1,-1,-1,-1,-1,-1,-1,-1,-1,-1,-1,-1,-1,-1,-1],"loss_changes":[2.783609E3,1.7883868E3,2.617771E2,1.3571403E3,3.2861792E2,8.336003E1,1.6851562E2,1.5806152E1,1.1885933E3,2.3345917E1,3.03958E2,8.211811E0,8.285768E1,1.00153076E2,7.220236E1,9.481812E0,1.2552153E1,9.935425E0,1.1271062E3,0E0,1.4862228E1,3.425232E0,2.8729663E2,0E0,3.2281342E0,8.2440216E1,2.2006134E1,7.380298E1,2.041973E0,1.5010723E1,5.273419E1,0E0,7.2423096E0,0E0,6.5639915E0,0E0,9.334961E0,9.728106E2,1.9038037E2,0E0,1.4324661E1,3.0961914E0,1.6505419E0,2.4696008E2,4.5724243E1,7.563019E-2,0E0,6.428499E1,2.3586304E1,1.1727089E1,4.9849443E0,5.5618286E-1,6.959277E1,0E0,1.2416725E0,3.1670723E0,8.668583E0,1.1581379E1,4.679901E1,0E0,0E0,0E0,0E0,0E0,0E0,0E0,0E0,0E0,0E0,0E0,0E0,0E0,0E0,0E0,0E0,0E0,0E0,0E0,0E0,0E0,0E0,0E0,0E0,0E0,0E0,0E0,0E0,0E0,0E0,0E0,0E0,0E0,0E0,0E0,0E0,0E0,0E0,0E0,0E0,0E0,0E0,0E0,0E0],"parents":[2147483647,0,0,1,1,2,2,3,3,4,4,5,5,6,6,7,7,8,8,9,9,10,10,11,11,12,12,13,13,14,14,15,15,16,16,17,17,18,18,20,20,21,21,22,22,24,24,25,25,26,26,27,27,28,28,29,29,30,30,32,32,34,34,36,36,37,37,38,38,40,40,41,41,42,42,43,43,44,44,45,45,47,47,48,48,49,49,50,50,51,51,52,52,54,54,55,55,56,56,57,57,58,58],"right_children":[2,4,6,8,10,12,14,16,18,20,22,24,26,28,30,32,34,36,38,-1,40,42,44,-1,46,48,50,52,54,56,58,-1,60,-1,62,-1,64,66,68,-1,70,72,74,76,78,80,-1,82,84,86,88,90,92,-1,94,96,98,100,102,-1,-1,-1,-1,-1,-1,-1,-1,-1,-1,-1,-1,-1,-1,-1,-1,-1,-1,-1,-1,-1,-1,-1,-1,-1,-1,-1,-1,-1,-1,-1,-1,-1,-1,-1,-1,-1,-1,-1,-1,-1,-1,-1,-1],"split_conditions":[5.799333E-2,4.2861342E-2,8.7107056E-1,1.1832714E0,1.1753892E0,2.7915975E-1,2.334663E-2,5.627226E-2,9.052199E-1,2.0381737E-1,1.0735226E0,1.1146955E-1,1.3278158E-1,9.323098E-2,8.410492E-1,1.1645983E-1,1.857242E-1,9.408443E-2,3.9783698E-2,-1.3331108E-1,1.1590686E-1,1.2195023E-1,1.0496121E-1,4.7276773E-2,4.7451477E-2,1.0138978E-1,7.4401215E-2,1.0930107E0,8.9800335E-2,1.5574838E-1,3.1311926E-1,8.690336E-2,8.7448426E-2,1.1919781E-1,1.7222846E-1,7.7057935E-2,1.3675487E-1,6.32942E-2,4.4865813E-2,-1.06456816E-1,2.1704474E-1,1.7008813E-1,5.762188E-2,5.7915185E-2,5.471643E-1,7.873725E-2,-9.821402E-3,5.7329874E-2,8.544408E-2,1.1016888E-1,1.4901572E-1,5.6951955E-2,9.02959E-2,-6.943974E-3,7.634398E-2,6.579134E-2,8.634664E-2,4.952236E-2,8.3750874E-2,1.46452505E-2,-1.4209422E-1,7.200018E-2,-9.791807E-2,9.262362E-2,-1.266256E-1,2.9754639E-2,-1.1707746E-1,-5.4292858E-2,3.3165075E-2,-1.19755685E-1,1.02256015E-1,-1.5381359E-1,5.7936944E-3,4.6054445E-2,-7.9248816E-2,-4.5733433E-2,8.841169E-2,-7.487059E-2,-1.1284933E-1,-1.9124626E-1,-5.9335656E-2,3.5879545E-2,-7.801183E-2,8.727252E-2,-1.102194E-1,7.6085135E-2,-1.2547389E-1,-7.818149E-2,7.912581E-2,-2.0075043E-1,-6.017978E-2,1.13168515E-1,-9.194271E-2,-1.5724283E-1,-3.0405004E-2,-3.846576E-2,1.1204938E-1,-7.020389E-2,7.8614935E-2,-1.2600276E-1,8.504896E-2,7.0335954E-2,-1.7345451E-1],"split_indices":[1625,2745,2745,4894,3051,2787,655,519,4667,2753,2787,4770,2761,3842,1629,2066,3157,2406,2727,0,3127,4236,2745,0,4196,1625,1593,1064,519,519,1861,0,1817,0,850,0,155,605,519,0,2218,2657,655,4866,655,35,0,432,4667,1486,432,4828,3127,0,265,2657,3734,4200,1064,0,0,0,0,0,0,0,0,0,0,0,0,0,0,0,0,0,0,0,0,0,0,0,0,0,0,0,0,0,0,0,0,0,0,0,0,0,0,0,0,0,0,0,0],"split_type":[0,0,0,0,0,0,0,0,0,0,0,0,0,0,0,0,0,0,0,0,0,0,0,0,0,0,0,0,0,0,0,0,0,0,0,0,0,0,0,0,0,0,0,0,0,0,0,0,0,0,0,0,0,0,0,0,0,0,0,0,0,0,0,0,0,0,0,0,0,0,0,0,0,0,0,0,0,0,0,0,0,0,0,0,0,0,0,0,0,0,0,0,0,0,0,0,0,0,0,0,0,0,0],"sum_hessian":[3.051012E4,2.633527E4,4.1748496E3,1.8869871E4,7.4653975E3,1.2720156E3,2.9028342E3,6.592456E2,1.8210625E4,1.6051201E2,7.3048853E3,2.0184874E1,1.2518307E3,2.0329755E3,8.6985864E2,6.114474E2,4.779818E1,6.293804E2,1.7581246E4,3.8085413E0,1.5670346E2,3.156688E2,6.9892163E3,1.3941299E0,1.8790743E1,1.1996279E3,5.2202774E1,2.0173818E3,1.5593647E1,6.66196E1,8.032391E2,1.2074695E0,6.102399E2,2.20713E0,4.559105E1,1.8014683E0,6.2757886E2,1.4899946E4,2.681299E3,2.8446708E0,1.538588E2,3.1338153E2,2.287275E0,5.696518E3,1.2926986E3,1.7568672E1,1.2220718E0,8.06939E2,3.9268896E2,4.20975E1,1.0105277E1,7.614324E0,2.0097675E3,1.2132325E0,1.4380414E1,7.158786E0,5.9460808E1,1.8995531E1,7.842435E2,2.7833533E0,6.074566E2,1.7025852E0,4.3888462E1,1.2801262E0,6.2629877E2,1.4435139E4,4.6480765E2,2.4043384E3,2.7696054E2,2.165641E0,1.5169315E2,3.1223294E2,1.1485815E0,1.1762211E0,1.1110538E0,5.556699E3,1.3981873E2,6.218401E2,6.708585E2,1.639502E1,1.1736529E0,7.5483044E2,5.2108574E1,3.8735828E2,5.330661E0,2.4610794E0,3.9636417E1,1.7035252E0,8.4017515E0,6.1745462E0,1.4397775E0,1.993787E3,1.5980569E1,1.2984847E1,1.3955667E0,1.2184682E0,5.9403176E0,5.6070152E1,3.3906589E0,1.6665485E1,2.3300457E0,7.772098E2,7.033775E0],"tree_param":{"num_deleted":"0","num_feature":"5000","num_nodes":"103","size_leaf_vector":"1"}},{"base_weights":[5.71871E-4,5.514885E-1,-1.484756E-1,7.464552E-1,2.3224999E-1,-4.3574473E-1,5.761953E-2,9.36496E-1,4.2054316E-1,-1.4876546E0,2.6752582E-1,7.668658E-1,-4.6956384E-1,1.6267557E-1,-6.460698E-1,9.58466E-1,-1.2327048E0,4.5346588E-1,-1.6108345E0,-2.0837377E-1,-1.573617E0,3.0899185E-1,-1.2502991E0,3.5552648E-1,1.0310912E0,-3.403926E-1,-7.562223E-1,2.0520857E-1,-1.3174281E0,-1.7630451E0,-5.373522E-1,-1.0237226E0,9.786425E-1,3.4112215E-1,-1.4077659E0,-4.7864214E-1,5.181083E-1,1.3515772E-2,-1.7460431E0,-8.364658E-2,7.696784E-2,-1.6307017E0,3.0313848E-2,-1.6367527E0,3.3904907E-1,1.5961996E-1,-1.3496569E0,6.9645476E-1,-5.7357132E-2,1.0862507E0,-5.876097E-1,-1.3726095E0,-2.936229E-1,-8.018019E-1,-2.0806834E-2,-1.2051636E0,2.5184637E-1,1.02290966E-1,-1.3284785E0,-1.7875984E0,3.424354E-2,-6.415007E-1,3.897149E-1,-1.14190415E-1,5.937099E-2,9.990315E-2,-8.680059E-2,-2.1040121E-2,7.3908195E-2,-1.5126137E-1,2.6500402E-2,1.08649515E-1,-5.7057973E-2,-8.092137E-2,5.5772513E-2,1.1618081E-2,-1.8524073E-1,-1.6736369E-1,-1.36198E-3,-1.1741474E-3,-1.7240034E-1,3.737734E-2,-1.1695804E-1,7.802067E-2,-9.138497E-2,-1.4018585E-1,4.469467E-2,-9.3911074E-2,8.021053E-2,-2.22454E-2,1.4306128E-1,1.2032168E-1,2.8969575E-2,-1.2424191E-1,6.9253266E-2,9.1228366E-2,-1.3851714E-1,-1.0137353E-1,-2.2636486E-2,-8.870416E-2,-3.733067E-2,-1.3901812E-2,1.2322459E-1,1.0288625E-1,-1.4062446E-1,-1.1246753E-1,2.9511476E-2,5.6813687E-2,-1.3418578E-1,-1.8095034E-1,3.4241166E-2,8.077408E-2,-6.859087E-2,-1.5066086E-1,5.477665E-2],"categories":[],"categories_nodes":[],"categories_segments":[],"categories_sizes":[],"default_left":[0,1,0,1,0,0,1,1,1,0,1,1,0,1,0,0,0,0,0,1,1,0,0,0,1,0,1,0,0,1,1,1,1,0,1,0,0,0,0,0,0,1,0,0,1,1,1,0,0,1,1,0,0,1,1,0,0,0,0,1,0,0,0,0,0,0,0,0,0,0,0,0,0,0,0,0,0,0,0,0,0,0,0,0,0,0,0,0,0,0,0,0,0,0,0,0,0,0,0,0,0,0,0,0,0,0,0,0,0,0,0,0,0,0,0],"id":8,"left_children":[1,3,5,7,9,11,13,15,17,19,21,23,25,27,29,31,33,35,37,39,41,43,45,47,49,51,53,55,57,59,61,63,65,67,69,71,73,-1,75,-1,-1,77,-1,79,81,83,85,87,89,91,93,95,97,99,101,103,105,-1,107,109,-1,111,113,-1,-1,-1,-1,-1,-1,-1,-1,-1,-1,-1,-1,-1,-1,-1,-1,-1,-1,-1,-1,-1,-1,-1,-1,-1,-1,-1,-1,-1,-1,-1,-1,-1,-1,-1,-1,-1,-1,-1,-1,-1,-1,-1,-1,-1,-1,-1,-1,-1,-1,-1,-1],"loss_changes":[2.4850715E3,4.0092676E2,1.4102722E3,2.4737915E2,1.4873192E2,4.0505774E2,1.0254961E3,1.215708E2,9.939584E1,5.0925217E0,1.5122388E2,2.9255585E1,3.5813428E2,7.6007776E2,2.1787335E2,1.01041016E2,7.57917E0,8.776929E1,5.8423843E0,3.2584045E0,5.4261093E0,1.3703632E2,9.171242E0,1.5259939E1,1.540834E1,3.218003E2,1.0073743E2,7.7206854E2,1.0081421E1,8.852234E0,1.5894073E2,5.589279E0,9.411719E1,8.98258E-1,4.501728E0,1.4249945E1,7.190411E1,0E0,4.5953217E0,0E0,0E0,3.0898666E0,0E0,5.037575E0,1.2087259E2,4.1124334E0,6.237526E0,1.0999994E1,1.2558358E1,1.4588684E1,5.973907E0,9.559448E0,3.0907104E2,1.0304675E2,2.6307594E1,1.702373E2,6.76835E2,0E0,9.291748E0,7.9783325E0,0E0,9.5672E1,5.0762764E1,0E0,0E0,0E0,0E0,0E0,0E0,0E0,0E0,0E0,0E0,0E0,0E0,0E0,0E0,0E0,0E0,0E0,0E0,0E0,0E0,0E0,0E0,0E0,0E0,0E0,0E0,0E0,0E0,0E0,0E0,0E0,0E0,0E0,0E0,0E0,0E0,0E0,0E0,0E0,0E0,0E0,0E0,0E0,0E0,0E0,0E0,0E0,0E0,0E0,0E0,0E0,0E0],"parents":[2147483647,0,0,1,1,2,2,3,3,4,4,5,5,6,6,7,7,8,8,9,9,10,10,11,11,12,12,13,13,14,14,15,15,16,16,17,17,18,18,19,19,20,20,21,21,22,22,23,23,24,24,25,25,26,26,27,27,28,28,29,29,30,30,31,31,32,32,33,33,34,34,35,35,36,36,38,38,41,41,43,43,44,44,45,45,46,46,47,47,48,48,49,49,50,50,51,51,52,52,53,53,54,54,55,55,56,56,58,58,59,59,61,61,62,62],"right_children":[2,4,6,8,10,12,14,16,18,20,22,24,26,28,30,32,34,36,38,40,42,44,46,48,50,52,54,56,58,60,62,64,66,68,70,72,74,-1,76,-1,-1,78,-1,80,82,84,86,88,90,92,94,96,98,100,102,104,106,-1,108,110,-1,112,114,-1,-1,-1,-1,-1,-1,-1,-1,-1,-1,-1,-1,-1,-1,-1,-1,-1,-1,-1,-1,-1,-1,-1,-1,-1,-1,-1,-1,-1,-1,-1,-1,-1,-1,-1,-1,-1,-1,-1,-1,-1,-1,-1,-1,-1,-1,-1,-1,-1,-1,-1,-1],"split_conditions":[1.4217827E0,2.3957582E-2,8.7107056E-1,2.334663E-2,2.7915975E-1,1.1895691E0,3.58909E-2,7.241924E-2,6.620423E-2,7.622817E-2,5.325073E-2,3.9334502E-2,7.334512E-2,6.1179996E-2,1.1891456E0,2.9652518E-1,7.557581E-2,8.410492E-1,1.9046636E-1,3.3820502E-2,7.475082E-2,2.9484418E-1,4.367534E-2,4.782427E-2,7.093158E-2,1.1832714E0,5.5337686E-2,9.762169E-1,1.8264441E-1,2.1208832E-1,4.1551344E-2,7.393732E-2,6.2747404E-2,5.535223E-2,6.282059E-2,1.361664E-1,3.6599892E-1,1.3515772E-2,7.1374625E-2,-8.364658E-2,7.696784E-2,9.14555E-2,3.0313848E-2,6.902926E-2,9.818195E-2,8.5458204E-2,7.615518E-2,8.949129E-2,1.6771342E-1,4.7477566E-2,4.9598068E-2,5.8587853E-2,8.866785E-1,6.875126E-2,1.0475496E-1,7.13949E-1,2.00001E0,1.02290966E-1,4.571634E-1,1.4086823E-1,3.424354E-2,3.9157113E-1,2.4139027E-1,-1.14190415E-1,5.937099E-2,9.990315E-2,-8.680059E-2,-2.1040121E-2,7.3908195E-2,-1.5126137E-1,2.6500402E-2,1.08649515E-1,-5.7057973E-2,-8.092137E-2,5.5772513E-2,1.1618081E-2,-1.8524073E-1,-1.6736369E-1,-1.36198E-3,-1.1741474E-3,-1.7240034E-1,3.737734E-2,-1.1695804E-1,7.802067E-2,-9.138497E-2,-1.4018585E-1,4.469467E-2,-9.3911074E-2,8.021053E-2,-2.22454E-2,1.4306128E-1,1.2032168E-1,2.8969575E-2,-1.2424191E-1,6.9253266E-2,9.1228366E-2,-1.3851714E-1,-1.0137353E-1,-2.2636486E-2,-8.870416E-2,-3.733067E-2,-1.3901812E-2,1.2322459E-1,1.0288625E-1,-1.4062446E-1,-1.1246753E-1,2.9511476E-2,5.6813687E-2,-1.3418578E-1,-1.8095034E-1,3.4241166E-2,8.077408E-2,-6.859087E-2,-1.5066086E-1,5.477665E-2],"split_indices":[1625,2745,2745,655,2787,4866,1100,3842,422,2017,4894,1980,2745,4894,1102,4667,1593,1629,1799,2657,1383,2753,713,2745,3127,4894,2404,1060,4878,4950,519,2120,3127,1593,2650,3651,3127,0,4693,0,0,2588,0,2179,3866,2609,1208,432,4866,2727,265,3279,2572,655,2406,457,605,0,2691,115,0,1269,391,0,0,0,0,0,0,0,0,0,0,0,0,0,0,0,0,0,0,0,0,0,0,0,0,0,0,0,0,0,0,0,0,0,0,0,0,0,0,0,0,0,0,0,0,0,0,0,0,0,0,0,0],"split_type":[0,0,0,0,0,0,0,0,0,0,0,0,0,0,0,0,0,0,0,0,0,0,0,0,0,0,0,0,0,0,0,0,0,0,0,0,0,0,0,0,0,0,0,0,0,0,0,0,0,0,0,0,0,0,0,0,0,0,0,0,0,0,0,0,0,0,0,0,0,0,0,0,0,0,0,0,0,0,0,0,0,0,0,0,0,0,0,0,0,0,0,0,0,0,0,0,0,0,0,0,0,0,0,0,0,0,0,0,0,0,0,0,0,0,0],"sum_hessian":[3.0262145E4,6.443321E3,2.3818824E4,3.999433E3,2.443888E3,9.949472E3,1.3869353E4,2.5251392E3,1.4742938E3,4.829006E1,2.395598E3,2.7154736E2,9.677925E3,1.2068392E4,1.8009601E3,2.500373E3,2.4766035E1,1.4515453E3,2.2748552E1,3.2561712E0,4.503389E1,2.3326672E3,6.2930614E1,1.071244E2,1.6442296E2,6.6731304E3,3.0047942E3,1.1732113E4,3.362785E2,1.5839348E2,1.6425667E3,2.4693455E1,2.4756797E3,2.3840911E0,2.2381945E1,9.372198E1,1.3578232E3,1.6350464E0,2.1113506E1,2.0709796E0,1.1851916E0,4.383178E1,1.2021102E0,3.4672894E1,2.2979944E3,4.1028805E0,5.8827732E1,5.829881E1,4.882559E1,1.5932275E2,5.1002045E0,2.8802423E2,6.385106E3,2.8293464E3,1.7544754E2,3.747411E2,1.1357372E4,1.1500206E0,3.3512848E2,1.5671689E2,1.676589E0,1.4769512E3,1.656155E2,2.3286009E1,1.4074451E0,2.4490981E3,2.6581644E1,1.1967889E0,1.1873021E0,2.1151903E1,1.2300406E0,4.599681E0,8.91223E1,3.878964E1,1.3190337E3,1.1357917E0,1.9977715E1,4.2664032E1,1.1677462E0,1.8246189E0,3.2848274E1,2.2470266E3,5.096786E1,2.7729778E0,1.3299029E0,5.738023E1,1.447505E0,3.0586872E0,5.5240124E1,4.4714783E1,4.110805E0,1.384781E2,2.0844656E1,3.3937337E0,1.7064707E0,1.1832292E0,2.86841E2,5.442207E2,5.8408853E3,2.3590042E3,4.7034238E2,1.6113531E2,1.4312229E1,3.060463E1,3.4413647E2,3.4535648E2,1.1012016E4,2.0570822E0,3.330714E2,1.5527055E2,1.4463328E0,4.3400528E1,1.4335507E3,1.2085057E1,1.5353044E2],"tree_param":{"num_deleted":"0","num_feature":"5000","num_nodes":"115","size_leaf_vector":"1"}},{"base_weights":[-1.0109718E-3,5.0325865E-1,-1.357796E-1,3.454383E-1,8.7917036E-1,-2.1056251E-1,5.487537E-1,3.781273E-1,-1.5007836E0,1.0153881E0,5.784558E-1,9.1698307E-1,-2.5984278E-1,8.5862714E-1,1.8856716E-1,4.068725E-1,-1.609617E0,7.614916E-2,-1.5437871E0,1.0337044E0,-9.57456E-1,-1.1073694E0,6.1930966E-1,6.3222474E-1,1.2254434E0,-3.1965524E-1,5.1564693E-1,9.0116125E-1,-9.961151E-1,2.9397961E-1,-8.0939096E-1,-9.6049464E-1,4.4456854E-1,-1.663889E0,6.159828E-2,3.9238222E-2,-1.5921389E0,1.05016E0,-1.0482928E0,-4.7717486E-2,-1.4327593E0,-1.4345709E0,6.9845185E-2,6.451396E-1,-1.2760409E0,6.860487E-1,-1.2111837E0,-1.5769288E-1,1.246038E0,1.1086923E0,-3.502914E-1,-1.4286299E0,6.232897E-1,-1.6083091E0,9.265778E-1,-1.1316296E0,7.356619E-2,3.789695E-1,-5.986715E-1,-9.135504E-1,8.830395E-1,1.1815937E-1,-1.0075166E-1,4.83741E-2,-9.212474E-2,-1.7154168E-1,1.1413628E-2,2.3130635E-2,-1.6477764E-1,-2.1190174E-1,1.0589941E-1,-1.2865965E-1,2.483744E-2,-9.520028E-2,4.6549574E-2,-2.4335926E-2,-1.6100888E-1,4.3549642E-2,-1.6565761E-1,-1.2837307E-1,6.7042395E-2,-1.5367033E-1,1.2801464E-2,7.143328E-2,-1.8303812E-1,4.2120405E-3,-1.4605783E-1,-1.3959967E-1,1.2642275E-1,8.96422E-2,1.591187E-1,7.538443E-2,-3.908018E-2,-1.4665034E-1,6.1913174E-2,8.295562E-2,1.9692836E-2,-3.1072346E-2,-1.7528513E-1,-1.5963088E-1,9.4959E-2,-1.22207224E-1,4.3171655E-2,1.0812112E-1,2.7781839E-2,-7.5701684E-2,5.335132E-2,6.272619E-2,-1.0002617E-1,1.3721274E-1,-3.44368E-2],"categories":[],"categories_nodes":[],"categories_segments":[],"categories_sizes":[],"default_left":[0,0,1,1,1,0,1,1,0,1,0,0,1,1,1,0,1,0,0,1,1,1,1,1,0,0,0,0,1,1,1,0,1,1,0,0,0,0,1,0,0,0,0,0,1,1,0,0,0,0,0,1,1,0,0,1,0,0,1,0,1,0,0,0,0,0,0,0,0,0,0,0,0,0,0,0,0,0,0,0,0,0,0,0,0,0,0,0,0,0,0,0,0,0,0,0,0,0,0,0,0,0,0,0,0,0,0,0,0,0,0],"id":9,"left_children":[1,3,5,7,9,11,13,15,17,19,21,23,25,27,29,31,33,-1,35,37,39,41,43,45,47,49,51,53,55,57,59,61,63,65,-1,-1,67,69,71,73,75,77,-1,79,81,83,85,-1,87,89,91,93,95,97,99,101,-1,103,105,107,109,-1,-1,-1,-1,-1,-1,-1,-1,-1,-1,-1,-1,-1,-1,-1,-1,-1,-1,-1,-1,-1,-1,-1,-1,-1,-1,-1,-1,-1,-1,-1,-1,-1,-1,-1,-1,-1,-1,-1,-1,-1,-1,-1,-1,-1,-1,-1,-1,-1,-1],"loss_changes":[2.0343873E3,3.742317E2,1.2093618E3,2.6901093E2,7.585266E1,1.183584E3,2.5953156E2,2.5043097E2,8.723724E0,4.7350952E1,4.0913925E1,7.7576965E1,9.4664343E2,9.9545166E1,1.1356698E2,2.2257892E2,8.576218E0,0E0,7.783661E0,4.4669434E1,5.259321E0,9.379644E0,2.8773453E1,4.7056686E1,2.6615784E1,8.2939465E2,3.067681E2,7.949188E1,7.522812E0,7.420506E1,1.8996986E1,1.2869171E1,2.248869E2,5.8118744E0,0E0,0E0,7.97023E0,3.7580933E1,3.5556288E0,2.8855205E0,1.307827E0,5.8408585E0,0E0,2.8362503E1,3.12887E0,3.357225E1,4.305834E0,0E0,2.2168213E1,3.93414E1,8.299153E2,6.877777E0,1.21687195E2,1.8237228E0,7.184119E1,4.321621E0,0E0,6.2986374E1,1.5670622E1,1.3680351E1,4.3691E0,0E0,0E0,0E0,0E0,0E0,0E0,0E0,0E0,0E0,0E0,0E0,0E0,0E0,0E0,0E0,0E0,0E0,0E0,0E0,0E0,0E0,0E0,0E0,0E0,0E0,0E0,0E0,0E0,0E0,0E0,0E0,0E0,0E0,0E0,0E0,0E0,0E0,0E0,0E0,0E0,0E0,0E0,0E0,0E0,0E0,0E0,0E0,0E0,0E0,0E0],"parents":[2147483647,0,0,1,1,2,2,3,3,4,4,5,5,6,6,7,7,8,8,9,9,10,10,11,11,12,12,13,13,14,14,15,15,16,16,18,18,19,19,20,20,21,21,22,22,23,23,24,24,25,25,26,26,27,27,28,28,29,29,30,30,31,31,32,32,33,33,36,36,37,37,38,38,39,39,40,40,41,41,43,43,44,44,45,45,46,46,48,48,49,49,50,50,51,51,52,52,53,53,54,54,55,55,57,57,58,58,59,59,60,60],"right_children":[2,4,6,8,10,12,14,16,18,20,22,24,26,28,30,32,34,-1,36,38,40,42,44,46,48,50,52,54,56,58,60,62,64,66,-1,-1,68,70,72,74,76,78,-1,80,82,84,86,-1,88,90,92,94,96,98,100,102,-1,104,106,108,110,-1,-1,-1,-1,-1,-1,-1,-1,-1,-1,-1,-1,-1,-1,-1,-1,-1,-1,-1,-1,-1,-1,-1,-1,-1,-1,-1,-1,-1,-1,-1,-1,-1,-1,-1,-1,-1,-1,-1,-1,-1,-1,-1,-1,-1,-1,-1,-1,-1,-1],"split_conditions":[1.4217827E0,9.310256E-2,4.651424E-2,6.288841E-2,3.4520175E-2,1.089031E0,2.6583107E-2,6.582887E-2,1.889223E-1,9.718953E-2,7.920043E-1,1.1183449E-1,6.1391E-2,6.504979E-2,7.52394E-2,1.3573811E0,9.11368E-2,7.614916E-2,1.7431296E-1,7.953482E-2,4.087195E-2,4.3676965E-2,8.982725E-2,6.848223E-2,3.6613107E-1,1.2036414E0,8.746571E-1,2.1206222E-1,7.4246995E-2,5.19097E-2,9.269337E-2,2.7319345E-1,5.8616128E-2,9.0208024E-2,6.159828E-2,3.9238222E-2,7.247953E-2,3.0847892E-1,4.7311813E-2,5.224603E-2,6.575706E-2,1.2132533E-1,6.9845185E-2,2.5500268E-1,4.812157E-2,8.322343E-2,1.3031918E-1,-1.5769288E-1,2.38251E-1,1.4116502E-1,9.5363843E-1,1.0848736E-1,3.6186446E-2,5.4283764E-2,3.3393887E-1,8.7923475E-2,7.356619E-2,1.2744678E0,4.9287632E-2,8.2022446E-1,3.8060386E-2,1.1815937E-1,-1.0075166E-1,4.83741E-2,-9.212474E-2,-1.7154168E-1,1.1413628E-2,2.3130635E-2,-1.6477764E-1,-2.1190174E-1,1.0589941E-1,-1.2865965E-1,2.483744E-2,-9.520028E-2,4.6549574E-2,-2.4335926E-2,-1.6100888E-1,4.3549642E-2,-1.6565761E-1,-1.2837307E-1,6.7042395E-2,-1.5367033E-1,1.2801464E-2,7.143328E-2,-1.8303812E-1,4.2120405E-3,-1.4605783E-1,-1.3959967E-1,1.2642275E-1,8.96422E-2,1.591187E-1,7.538443E-2,-3.908018E-2,-1.4665034E-1,6.1913174E-2,8.295562E-2,1.9692836E-2,-3.1072346E-2,-1.7528513E-1,-1.5963088E-1,9.4959E-2,-1.22207224E-1,4.3171655E-2,1.0812112E-1,2.7781839E-2,-7.5701684E-2,5.335132E-2,6.272619E-2,-1.0002617E-1,1.3721274E-1,-3.44368E-2],"split_indices":[1625,1625,2404,1830,655,1269,655,1064,2490,3866,459,1269,519,605,691,3127,1339,0,1637,3842,2745,4196,1060,3127,3842,161,391,1063,1914,432,2406,3376,605,3953,0,0,2323,3129,2745,2814,1428,4897,0,4667,2906,3129,176,0,1064,161,1165,1909,2745,357,1064,2157,0,2406,519,2663,2745,0,0,0,0,0,0,0,0,0,0,0,0,0,0,0,0,0,0,0,0,0,0,0,0,0,0,0,0,0,0,0,0,0,0,0,0,0,0,0,0,0,0,0,0,0,0,0,0,0,0],"split_type":[0,0,0,0,0,0,0,0,0,0,0,0,0,0,0,0,0,0,0,0,0,0,0,0,0,0,0,0,0,0,0,0,0,0,0,0,0,0,0,0,0,0,0,0,0,0,0,0,0,0,0,0,0,0,0,0,0,0,0,0,0,0,0,0,0,0,0,0,0,0,0,0,0,0,0,0,0,0,0,0,0,0,0,0,0,0,0,0,0,0,0,0,0,0,0,0,0,0,0,0,0,0,0,0,0,0,0,0,0,0,0],"sum_hessian":[2.9933186E4,6.31212E3,2.3621064E4,4.447028E3,1.8650922E3,2.1295318E4,2.3257476E3,4.3704404E3,7.658729E1,1.2819963E3,5.830959E2,8.910164E2,2.04043E4,1.2494471E3,1.0763005E3,4.3089233E3,6.1517014E1,1.1170176E0,7.5470276E1,1.2706752E3,1.1321155E1,1.3178591E1,5.699173E2,4.6489413E2,4.2612225E2,1.8943781E4,1.4605205E3,1.221939E3,2.750814E1,9.741123E2,1.0218825E2,1.1494607E2,4.1939775E3,6.029899E1,1.2180253E0,1.6654351E0,7.380484E1,1.2612024E3,9.472702E0,4.2626886E0,7.0584655E0,1.133107E1,1.8475213E0,5.6290564E2,7.011681E0,4.5231525E2,1.2578883E1,2.5574198E0,4.2356485E2,3.9704794E2,1.8546732E4,7.5974434E1,1.3845461E3,1.1627575E1,1.2103114E3,2.5833199E1,1.6749419E0,8.899546E2,8.415769E1,9.6697296E1,5.4909525E0,1.9507544E0,1.1299531E2,4.077673E3,1.1630443E2,5.863494E1,1.6640472E0,2.0917902E0,7.171305E1,2.8417723E0,1.2583607E3,8.00863E0,1.4640728E0,1.2337782E0,3.0289106E0,1.2236242E0,5.8348413E0,1.1003748E0,1.0230695E1,6.639322E0,5.562663E2,5.8341074E0,1.1775739E0,4.47996E2,4.3192496E0,2.2255814E0,1.0353301E1,2.378222E0,4.211866E2,2.7772333E2,1.19324615E2,6.557675E2,1.7890965E4,7.487349E1,1.1009401E0,9.3248145E2,4.5206467E2,1.4811033E0,1.0146471E1,1.0321946E1,1.1999894E3,2.4626787E1,1.206411E0,1.10829765E2,7.791248E2,7.412242E1,1.0035264E1,4.8197136E0,9.187759E1,3.8420825E0,1.64887E0],"tree_param":{"num_deleted":"0","num_feature":"5000","num_nodes":"111","size_leaf_vector":"1"}},{"base_weights":[-2.7170428E-3,-8.981055E-2,6.5073824E-1,-9.369369E-1,-2.6722452E-2,3.1479207E-1,8.004836E-1,-1.8093055E-1,-1.0835763E0,-1.2762965E0,1.197568E-2,3.5237968E-1,-1.2451471E0,8.2091045E-1,-1.0909562E0,-1.3836819E0,1.6249712E-1,-1.0045564E0,-1.5586871E0,-1.3085533E0,1.6181159E-1,1.18542574E-1,-4.386374E-1,3.8736627E-1,-1.2544926E0,7.0803426E-2,-1.3725903E0,8.3518463E-1,-1.8113542E0,2.04642E-2,-1.2082471E0,-1.3986962E-1,-2.1278001E-2,9.714301E-1,-3.0098477E-1,-1.0237191E0,7.476193E-1,-1.5678726E0,-1.4393224E-2,-6.514806E-1,-1.3654847E0,1.3758996E-1,-1.607715E-1,-1.6189598E0,1.4900722E-1,-1.4317137E0,-3.9782178E-1,-1.4103851E0,4.181628E-1,-1.3760365E0,4.925934E-2,1.2351122E-2,-1.472942E0,8.554017E-1,-9.277239E-1,1.2767391E-2,-2.0161164E0,-1.9456623E-1,-1.3691608E0,1.0904675E-1,-3.12598E-2,-7.306724E-2,3.5608303E-2,-2.1022867E-2,-1.0616652E-1,-9.1979645E-2,9.816231E-2,-1.7760146E-2,-1.5757224E-1,1.418554E-1,-7.5411804E-2,1.3789247E-1,-1.3736734E-1,-4.4074733E-2,1.051222E-1,1.005904E-1,-1.6356723E-1,-1.4991699E-1,1.8097332E-2,-1.4480112E-1,2.5708815E-2,-2.5146326E-2,-6.6528454E-2,3.7304454E-2,-1.6232182E-1,-1.3295424E-1,4.488122E-2,9.328466E-3,-1.5094577E-1,-1.5476246E-1,-7.4956357E-3,8.692404E-2,-1.5540008E-1,8.603015E-2,-1.0636785E-1,-2.1888517E-1,-8.26862E-2,-9.8684914E-2,5.7862908E-2,-1.4502487E-1,-5.411805E-2],"categories":[],"categories_nodes":[],"categories_segments":[],"categories_sizes":[],"default_left":[1,0,0,0,0,1,1,0,1,1,1,1,0,1,0,1,0,1,1,0,0,0,0,0,1,0,0,1,0,0,0,0,0,1,1,0,0,0,0,0,0,0,0,0,0,1,1,0,0,0,0,0,1,1,0,0,1,1,0,0,0,0,0,0,0,0,0,0,0,0,0,0,0,0,0,0,0,0,0,0,0,0,0,0,0,0,0,0,0,0,0,0,0,0,0,0,0,0,0,0,0],"id":10,"left_children":[1,3,5,7,9,11,13,15,17,19,21,23,25,27,29,31,33,35,37,39,41,43,45,47,49,-1,51,53,55,-1,57,-1,-1,59,61,63,65,67,-1,69,71,-1,73,75,77,79,81,83,85,87,-1,-1,89,91,93,-1,95,97,99,-1,-1,-1,-1,-1,-1,-1,-1,-1,-1,-1,-1,-1,-1,-1,-1,-1,-1,-1,-1,-1,-1,-1,-1,-1,-1,-1,-1,-1,-1,-1,-1,-1,-1,-1,-1,-1,-1,-1,-1,-1,-1],"loss_changes":[1.6854458E3,1.3965701E3,1.7496179E2,2.0059656E2,1.1761301E3,6.3499184E1,9.3948975E1,1.22259766E2,5.5378662E1,3.4104004E1,1.1329648E3,5.9569824E1,7.325577E0,9.1061035E1,4.222868E0,8.5788727E-1,8.679362E1,4.452527E1,2.5616455E0,2.5845703E1,6.847075E0,1.01023346E3,1.8233594E2,5.757802E1,5.4834557E0,0E0,3.830555E0,8.5302246E1,5.4863777E0,0E0,3.6703682E0,0E0,0E0,1.3222168E1,4.188749E1,3.9585693E1,6.629675E0,2.0446167E0,0E0,1.3583544E1,1.6654053E1,0E0,5.3028173E0,1.607251E1,9.882842E2,5.26474E0,1.695575E2,7.2726173E0,5.4846497E1,4.3404617E0,0E0,0E0,2.2698479E0,7.953162E1,7.5668697E0,0E0,6.49395E-1,3.3105228E0,6.024399E-1,0E0,0E0,0E0,0E0,0E0,0E0,0E0,0E0,0E0,0E0,0E0,0E0,0E0,0E0,0E0,0E0,0E0,0E0,0E0,0E0,0E0,0E0,0E0,0E0,0E0,0E0,0E0,0E0,0E0,0E0,0E0,0E0,0E0,0E0,0E0,0E0,0E0,0E0,0E0,0E0,0E0,0E0],"parents":[2147483647,0,0,1,1,2,2,3,3,4,4,5,5,6,6,7,7,8,8,9,9,10,10,11,11,12,12,13,13,14,14,15,15,16,16,17,17,18,18,19,19,20,20,21,21,22,22,23,23,24,24,26,26,27,27,28,28,30,30,33,33,34,34,35,35,36,36,37,37,39,39,40,40,42,42,43,43,44,44,45,45,46,46,47,47,48,48,49,49,52,52,53,53,54,54,56,56,57,57,58,58],"right_children":[2,4,6,8,10,12,14,16,18,20,22,24,26,28,30,32,34,36,38,40,42,44,46,48,50,-1,52,54,56,-1,58,-1,-1,60,62,64,66,68,-1,70,72,-1,74,76,78,80,82,84,86,88,-1,-1,90,92,94,-1,96,98,100,-1,-1,-1,-1,-1,-1,-1,-1,-1,-1,-1,-1,-1,-1,-1,-1,-1,-1,-1,-1,-1,-1,-1,-1,-1,-1,-1,-1,-1,-1,-1,-1,-1,-1,-1,-1,-1,-1,-1,-1,-1,-1],"split_conditions":[6.312233E-2,8.866785E-1,8.7107056E-1,8.985379E-1,1.3573811E0,5.6182105E-2,6.262044E-2,1.0735226E0,7.69099E-2,6.459474E-2,5.717445E-2,1.2301025E-1,9.264148E-2,7.3847294E-2,8.58364E-2,1.0577308E-1,7.818581E-1,8.077098E-2,1.5666974E-1,7.091308E-2,5.5862512E-2,1.0818934E0,8.7744534E-1,1.5105174E0,7.271589E-2,7.0803426E-2,4.2087957E-2,8.945934E-2,7.261359E-2,2.04642E-2,9.893721E-2,-1.3986962E-1,-2.1278001E-2,4.74376E-2,5.1119845E-2,2.6974347E-1,3.2634538E-1,1.2651682E-1,-1.4393224E-2,1.01198375E-1,1.4323127E-1,1.3758996E-1,1.8315595E-1,6.1943382E-2,1.5105174E0,1.2069583E-1,3.8008813E-2,6.620338E-2,2.7915975E-1,6.8212494E-2,4.925934E-2,1.2351122E-2,6.24022E-2,8.692914E-2,8.371483E-2,1.2767391E-2,6.352665E-2,5.2046232E-2,1.3390741E-1,1.0904675E-1,-3.12598E-2,-7.306724E-2,3.5608303E-2,-2.1022867E-2,-1.0616652E-1,-9.1979645E-2,9.816231E-2,-1.7760146E-2,-1.5757224E-1,1.418554E-1,-7.5411804E-2,1.3789247E-1,-1.3736734E-1,-4.4074733E-2,1.051222E-1,1.005904E-1,-1.6356723E-1,-1.4991699E-1,1.8097332E-2,-1.4480112E-1,2.5708815E-2,-2.5146326E-2,-6.6528454E-2,3.7304454E-2,-1.6232182E-1,-1.3295424E-1,4.488122E-2,9.328466E-3,-1.5094577E-1,-1.5476246E-1,-7.4956357E-3,8.692404E-2,-1.5540008E-1,8.603015E-2,-1.0636785E-1,-2.1888517E-1,-8.26862E-2,-9.8684914E-2,5.7862908E-2,-1.4502487E-1,-5.411805E-2],"split_indices":[1625,2572,2745,4002,3127,4667,4667,2787,3424,1318,2745,3866,2017,1063,1462,541,4897,2067,3549,4778,559,1063,2753,1830,4375,0,1593,3127,2973,0,389,0,0,4724,1462,3918,1147,1296,0,3269,2654,0,1318,3663,1830,495,4626,4752,2787,1593,0,0,2451,1064,1740,0,4174,1980,1625,0,0,0,0,0,0,0,0,0,0,0,0,0,0,0,0,0,0,0,0,0,0,0,0,0,0,0,0,0,0,0,0,0,0,0,0,0,0,0,0,0,0],"split_type":[0,0,0,0,0,0,0,0,0,0,0,0,0,0,0,0,0,0,0,0,0,0,0,0,0,0,0,0,0,0,0,0,0,0,0,0,0,0,0,0,0,0,0,0,0,0,0,0,0,0,0,0,0,0,0,0,0,0,0,0,0,0,0,0,0,0,0,0,0,0,0,0,0,0,0,0,0,0,0,0,0,0,0,0,0,0,0,0,0,0,0,0,0,0,0,0,0,0,0,0,0],"sum_hessian":[2.9613072E4,2.6131137E4,3.4819348E3,1.8102214E3,2.4320916E4,1.0744847E3,2.4074502E3,2.9444254E2,1.5157789E3,7.296101E2,2.3591305E4,1.0499595E3,2.4525265E1,2.3822883E3,2.516187E1,6.472695E1,2.2971558E2,1.3022969E3,2.134821E2,7.13692E2,1.5918081E1,1.90798E4,4.511505E3,1.0283285E3,2.1630966E1,1.2231838E0,2.3302082E1,2.3701184E3,1.2169904E1,2.0269873E0,2.3134882E1,6.3715397E1,1.0115578E0,8.327556E1,1.4644002E2,1.2886196E3,1.3677221E1,2.1199742E2,1.4846706E0,5.7898678E1,6.5579333E2,2.6561232E0,1.3261958E1,3.2787424E2,1.8751926E4,1.7675829E2,4.3347466E3,1.6564707E1,1.0117638E3,2.0422562E1,1.2084056E0,1.4502423E0,2.185184E1,2.343755E3,2.6363447E1,1.1983563E0,1.0971547E1,3.472005E0,1.9662878E1,7.634834E1,6.9272165E0,8.847199E1,5.7968025E1,5.7721615E1,1.2308981E3,1.3225534E0,1.2354668E1,1.3228915E0,2.1067453E2,2.1294763E0,5.5769203E1,1.4528897E0,6.5434045E2,1.1290214E1,1.9717441E0,1.6999031E0,3.2617432E2,3.558975E2,1.839603E4,1.7521004E2,1.5482502E0,2.802906E3,1.5318405E3,1.6858026E0,1.4878904E1,1.6707037E1,9.9505676E2,1.7251291E0,1.8697432E1,2.0642067E1,1.209772E0,2.3310056E3,1.2749142E1,1.4864423E0,2.4877005E1,8.8461485E0,2.1253986E0,1.5783575E0,1.8936474E0,1.7224459E1,2.438418E0],"tree_param":{"num_deleted":"0","num_feature":"5000","num_nodes":"101","size_leaf_vector":"1"}},{"base_weights":[7.149162E-4,4.3064478E-1,-1.1013188E-1,4.949086E-1,-4.4174224E-1,1.0280782E0,-1.4917345E-1,6.7428845E-1,1.8881643E-1,-6.3521326E-1,-1.2284479E-1,1.0654163E0,-6.296238E-1,-1.2569104E0,-1.1056021E-1,8.51943E-1,3.7425533E-1,-1.4145916E0,2.200919E-1,-6.7770064E-1,9.919487E-1,-1.3998207E0,-3.2303106E-2,1.139757E0,2.4023746E-1,1.2968588E-1,-8.505397E-1,5.93358E-2,-1.2705469E0,-1.4777178E-1,1.0443051E0,-1.4928485E0,8.736235E-1,4.067899E-1,-1.3627615E0,6.350068E-3,-1.4598061E0,-1.5462079E0,2.486079E-1,-7.089694E-1,1.3550572E-1,1.3060749E0,-1.5564725E-2,-2.9202765E-2,-1.4870815E-1,-1.3517429E0,4.7172867E-2,1.1667211E0,-6.7960274E-1,-3.7185687E-1,6.3933694E-1,-1.055901E0,1.0096586E-1,-6.0817766E-1,1.2869347E0,5.1880664E-1,-1.2789419E0,8.488199E-1,-1.9111253E-1,-1.2591801E0,1.0884902E0,-1.7806238E-1,-2.35627E-2,8.9407094E-2,-1.0258718E-1,-1.5137492E-1,4.3427836E-2,-1.5448242E-1,6.9432996E-2,-1.5055482E-1,1.047538E-3,-1.6073096E-1,1.0658365E-2,-1.944658E-1,2.71086E-2,3.6060035E-2,-7.715986E-2,1.4542054E-1,3.7899863E-2,-3.6208212E-2,-1.5157512E-1,1.0712822E-1,-6.188664E-3,1.1895211E-1,-7.870717E-2,6.6877834E-2,-1.1009053E-1,-6.564586E-2,9.76691E-2,-1.0477855E-1,7.970066E-2,5.992591E-2,-1.3234536E-1,7.242318E-2,-1.0103253E-1,1.6908145E-1,2.0766137E-2,-7.9410926E-2,1.3401623E-1,-1.2887153E-1,1.2736934E-2,5.6683596E-2,1.1366276E-1,-2.4700658E-2,5.6080785E-2,-1.4569905E-1,4.090343E-2,-1.13884054E-1,1.11235514E-1],"categories":[],"categories_nodes":[],"categories_segments":[],"categories_sizes":[],"default_left":[0,1,0,1,1,1,0,1,0,1,0,1,0,0,1,0,1,0,0,1,0,0,0,1,0,0,1,0,0,0,0,1,1,0,1,0,1,1,0,0,0,0,0,0,0,0,0,1,0,1,0,0,0,0,1,1,1,0,1,1,0,0,0,0,0,0,0,0,0,0,0,0,0,0,0,0,0,0,0,0,0,0,0,0,0,0,0,0,0,0,0,0,0,0,0,0,0,0,0,0,0,0,0,0,0,0,0,0,0],"id":11,"left_children":[1,3,5,7,9,11,13,15,17,19,21,23,25,27,29,31,33,35,37,39,41,43,45,47,49,-1,51,53,55,57,59,61,63,65,67,-1,69,71,73,75,-1,77,-1,-1,-1,79,81,83,85,87,89,91,-1,93,95,97,99,101,103,105,107,-1,-1,-1,-1,-1,-1,-1,-1,-1,-1,-1,-1,-1,-1,-1,-1,-1,-1,-1,-1,-1,-1,-1,-1,-1,-1,-1,-1,-1,-1,-1,-1,-1,-1,-1,-1,-1,-1,-1,-1,-1,-1,-1,-1,-1,-1,-1,-1],"loss_changes":[1.3961492E3,3.3687915E2,1.0351537E3,3.0699414E2,2.537436E1,4.848755E1,9.6309924E2,1.8764307E2,1.0402438E2,1.8406593E1,1.8108654E1,4.6095947E1,8.612971E0,1.3688721E1,9.353688E2,1.1386011E2,7.4770096E1,2.7461548E0,1.0260403E2,1.6888573E1,2.7027712E0,5.68367E-1,1.5546038E1,3.479706E1,1.5808022E1,0E0,7.3442907E0,7.9383736E0,1.194043E1,9.1083185E2,7.052466E1,7.0528603E0,8.614868E1,6.875319E1,1.0201523E1,0E0,2.6095352E0,3.4415817E0,9.903347E1,1.685389E1,0E0,2.1103382E-1,0E0,0E0,0E0,8.1811047E-1,1.5727327E1,3.1379272E1,6.845831E0,1.0538712E1,1.1195943E1,7.5638695E0,0E0,4.126535E0,1.1295075E0,5.6117306E0,1.0438232E1,7.0683044E1,8.493468E2,4.9687977E0,3.6731567E1,0E0,0E0,0E0,0E0,0E0,0E0,0E0,0E0,0E0,0E0,0E0,0E0,0E0,0E0,0E0,0E0,0E0,0E0,0E0,0E0,0E0,0E0,0E0,0E0,0E0,0E0,0E0,0E0,0E0,0E0,0E0,0E0,0E0,0E0,0E0,0E0,0E0,0E0,0E0,0E0,0E0,0E0,0E0,0E0,0E0,0E0,0E0,0E0],"parents":[2147483647,0,0,1,1,2,2,3,3,4,4,5,5,6,6,7,7,8,8,9,9,10,10,11,11,12,12,13,13,14,14,15,15,16,16,17,17,18,18,19,19,20,20,21,21,22,22,23,23,24,24,26,26,27,27,28,28,29,29,30,30,31,31,32,32,33,33,34,34,36,36,37,37,38,38,39,39,41,41,45,45,46,46,47,47,48,48,49,49,50,50,51,51,53,53,54,54,55,55,56,56,57,57,58,58,59,59,60,60],"right_children":[2,4,6,8,10,12,14,16,18,20,22,24,26,28,30,32,34,36,38,40,42,44,46,48,50,-1,52,54,56,58,60,62,64,66,68,-1,70,72,74,76,-1,78,-1,-1,-1,80,82,84,86,88,90,92,-1,94,96,98,100,102,104,106,108,-1,-1,-1,-1,-1,-1,-1,-1,-1,-1,-1,-1,-1,-1,-1,-1,-1,-1,-1,-1,-1,-1,-1,-1,-1,-1,-1,-1,-1,-1,-1,-1,-1,-1,-1,-1,-1,-1,-1,-1,-1,-1,-1,-1,-1,-1,-1,-1],"split_conditions":[1.4217827E0,4.2861786E-2,1.1895691E0,2.7471233E-2,6.559344E-2,6.468102E-2,1.1832714E0,2.6193889E-2,2.7915975E-1,6.685215E-2,2.3947947E-1,6.99495E-2,9.033969E-2,1.8508664E-1,5.4554183E-2,2.5874123E-1,6.0362168E-2,1.3444437E-1,3.1344002E-1,8.1226006E-2,1.0441213E-1,2.6821699E-2,2.4811305E-1,6.5157704E-2,9.394701E-2,1.2968588E-1,1.01527974E-1,2.9196823E-1,1.4656319E-1,1.089031E0,1.0930107E0,6.50328E-2,7.142526E-2,2.3558448E-1,5.578763E-2,6.350068E-3,9.14555E-2,6.1264966E-2,9.2181206E-1,2.4299985E-1,1.3550572E-1,1.9368052E-1,-1.5564725E-2,-2.9202765E-2,-1.4870815E-1,7.966045E-2,1.778411E-1,7.998413E-2,2.0620374E-1,9.376356E-2,7.371075E-2,7.295752E-2,1.0096586E-1,6.561355E-2,3.7911393E-2,6.1361298E-2,1.09441996E-1,1.09515E-1,6.4201266E-2,3.8125627E-2,1.4446583E-1,-1.7806238E-1,-2.35627E-2,8.9407094E-2,-1.0258718E-1,-1.5137492E-1,4.3427836E-2,-1.5448242E-1,6.9432996E-2,-1.5055482E-1,1.047538E-3,-1.6073096E-1,1.0658365E-2,-1.944658E-1,2.71086E-2,3.6060035E-2,-7.715986E-2,1.4542054E-1,3.7899863E-2,-3.6208212E-2,-1.5157512E-1,1.0712822E-1,-6.188664E-3,1.1895211E-1,-7.870717E-2,6.6877834E-2,-1.1009053E-1,-6.564586E-2,9.76691E-2,-1.0477855E-1,7.970066E-2,5.992591E-2,-1.3234536E-1,7.242318E-2,-1.0103253E-1,1.6908145E-1,2.0766137E-2,-7.9410926E-2,1.3401623E-1,-1.2887153E-1,1.2736934E-2,5.6683596E-2,1.1366276E-1,-2.4700658E-2,5.6080785E-2,-1.4569905E-1,4.090343E-2,-1.13884054E-1,1.11235514E-1],"split_indices":[1625,432,4866,2745,1980,605,4894,655,2787,1788,4894,2745,577,1853,1339,4491,3842,2761,2753,684,4287,1896,1830,3127,1707,0,118,4094,2067,1269,1064,1896,605,1064,3272,0,2588,3272,4568,3648,0,1896,0,0,0,4778,3651,4491,4950,4174,1033,4196,0,4800,3601,4174,520,1269,2404,1593,3842,0,0,0,0,0,0,0,0,0,0,0,0,0,0,0,0,0,0,0,0,0,0,0,0,0,0,0,0,0,0,0,0,0,0,0,0,0,0,0,0,0,0,0,0,0,0,0,0],"split_type":[0,0,0,0,0,0,0,0,0,0,0,0,0,0,0,0,0,0,0,0,0,0,0,0,0,0,0,0,0,0,0,0,0,0,0,0,0,0,0,0,0,0,0,0,0,0,0,0,0,0,0,0,0,0,0,0,0,0,0,0,0,0,0,0,0,0,0,0,0,0,0,0,0,0,0,0,0,0,0,0,0,0,0,0,0,0,0,0,0,0,0,0,0,0,0,0,0,0,0,0,0,0,0,0,0,0,0,0,0],"sum_hessian":[2.929419E4,6.004045E3,2.3290145E4,5.592509E3,4.1153592E2,7.715383E2,2.2518605E4,3.525342E3,2.0671667E3,2.5552203E2,1.5601389E2,7.548924E2,1.6645927E1,7.574458E2,2.176116E4,2.2130935E3,1.3122485E3,3.8703693E1,2.0284631E3,2.4958846E2,5.9335756E0,9.372078E0,1.466418E2,6.921546E2,6.2737774E1,1.2114226E0,1.54345045E1,7.732425E0,7.497134E2,2.1082715E4,6.7844604E2,1.9653614E1,2.19344E3,1.2888735E3,2.3374971E1,1.1367939E0,3.75669E1,3.1382599E1,1.9970806E3,2.464487E2,3.1397572E0,4.5500226E0,1.3835531E0,1.0017147E0,8.370363E0,7.4216285E0,1.3922017E2,6.823998E2,9.754839E0,2.478838E1,3.7949394E1,1.4289365E1,1.1451393E0,5.3356934E0,2.396732E0,3.2170048E0,7.4649634E2,8.7787946E2,2.0204834E4,1.2251422E1,6.6619464E2,1.5654107E1,3.9995065E0,2.1706035E3,2.2836466E1,1.7424215E1,1.2714493E3,2.170316E1,1.671811E0,3.6410152E1,1.1567464E0,3.029032E1,1.0922794E0,1.9392315E1,1.9776882E3,1.336947E1,2.3307924E2,3.4329104E0,1.1171122E0,1.5110912E0,5.9105372E0,1.2549818E1,1.2667036E2,6.74915E2,7.4848175E0,2.1824596E0,7.5723796E0,2.0892395E1,3.8959842E0,2.7609358E0,3.518846E1,1.8158977E0,1.2473467E1,1.0513648E0,4.2843285E0,1.3317492E0,1.0649828E0,1.2508022E0,1.9662027E0,7.4142725E2,5.0691E0,4.4492587E2,4.3295358E2,1.8807453E4,1.3973816E3,1.1065888E1,1.1855338E0,6.567034E0,6.5962756E2],"tree_param":{"num_deleted":"0","num_feature":"5000","num_nodes":"109","size_leaf_vector":"1"}},{"base_weights":[2.6742648E-3,-1.1826644E0,4.4767223E-2,9.045934E-2,-1.1871212E0,-9.691804E-1,8.985191E-2,-1.1938053E0,-1.7324504E-2,-1.2140009E0,1.0353068E0,1.2971853E-1,-1.0895748E0,6.9226734E-2,-1.1972644E0,8.9778894E-1,-8.487219E-1,-1.2911948E0,-2.7378136E-1,6.8749267E-1,1.6002817E0,-1.3648477E0,1.5995125E-1,-8.837754E-1,-1.3229989E0,-1.2674236E-1,-1.2043016E0,1.4031644E-1,1.036089E-2,-9.712998E-2,-2.4482766E-2,-1.1779432E0,-1.5959039E0,-1.4412303E-1,1.04747815E-2,-1.11074276E-1,1.1280612E0,1.6683966E0,-2.717999E-2,8.597508E-1,-1.383212E0,2.5438663E-1,-3.0544922E-1,-9.1595805E-1,9.955052E-1,-1.3361588E0,7.283669E-1,1.3236275E-1,-7.7220544E-2,-1.20803036E-1,5.807353E-2,4.3092333E-2,-1.2019221E-1,-1.6096658E-1,-2.1339726E-2,4.2832512E-2,-4.816895E-2,2.3390515E-2,-1.12647854E-1,1.21838115E-1,-7.220816E-2,8.395371E-3,1.7063855E-1,-2.8084889E-2,1.3083236E-1,-1.2317437E-1,-1.6467638E-1,3.0113263E-2,-7.790519E-2,-1.9686969E-2,-7.724533E-2,1.1135059E-1,-9.382647E-2,-5.7517674E-2,1.3402121E-1,-1.3460979E-1,9.066798E-2,1.1362958E-1,-2.379416E-3],"categories":[],"categories_nodes":[],"categories_segments":[],"categories_sizes":[],"default_left":[0,0,0,0,1,1,1,0,1,1,1,0,0,0,0,0,1,1,0,1,1,0,1,1,1,0,1,0,0,0,0,0,1,0,0,1,0,0,0,0,0,1,0,0,0,1,0,0,0,0,0,0,0,0,0,0,0,0,0,0,0,0,0,0,0,0,0,0,0,0,0,0,0,0,0,0,0,0,0],"id":12,"left_children":[1,3,5,-1,7,9,11,13,15,17,19,21,23,-1,25,27,29,31,33,35,37,39,41,43,45,47,49,-1,-1,-1,-1,51,53,-1,55,57,59,61,-1,63,65,67,69,71,73,75,77,-1,-1,-1,-1,-1,-1,-1,-1,-1,-1,-1,-1,-1,-1,-1,-1,-1,-1,-1,-1,-1,-1,-1,-1,-1,-1,-1,-1,-1,-1,-1,-1],"loss_changes":[1.4547074E3,1.0375E1,1.2871879E3,0E0,7.7838135E0,5.8951746E2,1.267704E3,7.304077E0,5.848608E0,7.72124E1,2.4644455E1,1.1785273E3,4.1178833E1,0E0,7.3132324E0,1.327034E0,5.95634E-2,3.2192627E1,2.7344976E1,2.9271587E1,6.7232437E0,2.2316528E1,1.1235078E3,2.9428558E1,1.2069397E1,8.127187E0,7.253784E0,0E0,0E0,0E0,0E0,2.8434937E1,4.693054E0,0E0,1.4030588E1,1.0900142E1,9.816299E0,2.720749E0,0E0,2.8493578E0,1.8462402E1,1.0268098E3,2.185097E2,2.205423E1,5.3284445E0,1.0332642E1,1.0295227E0,0E0,0E0,0E0,0E0,0E0,0E0,0E0,0E0,0E0,0E0,0E0,0E0,0E0,0E0,0E0,0E0,0E0,0E0,0E0,0E0,0E0,0E0,0E0,0E0,0E0,0E0,0E0,0E0,0E0,0E0,0E0,0E0],"parents":[2147483647,0,0,1,1,2,2,4,4,5,5,6,6,7,7,8,8,9,9,10,10,11,11,12,12,14,14,15,15,16,16,17,17,18,18,19,19,20,20,21,21,22,22,23,23,24,24,25,25,26,26,31,31,32,32,34,34,35,35,36,36,37,37,39,39,40,40,41,41,42,42,43,43,44,44,45,45,46,46],"right_children":[2,4,6,-1,8,10,12,14,16,18,20,22,24,-1,26,28,30,32,34,36,38,40,42,44,46,48,50,-1,-1,-1,-1,52,54,-1,56,58,60,62,-1,64,66,68,70,72,74,76,78,-1,-1,-1,-1,-1,-1,-1,-1,-1,-1,-1,-1,-1,-1,-1,-1,-1,-1,-1,-1,-1,-1,-1,-1,-1,-1,-1,-1,-1,-1,-1,-1],"split_conditions":[9.052199E-1,1.2831926E-1,9.762169E-1,9.045934E-2,8.1615604E-2,8.2234316E-2,6.0086027E-2,9.931413E-2,3.1510826E-2,6.258078E-2,6.084927E-2,1.596786E0,1.1365797E-1,6.9226734E-2,1.14578895E-1,9.619735E-2,5.5421136E-2,8.352227E-2,2.8087187E-1,4.0687162E-2,6.80766E-2,1.0055126E-1,5.9977442E-2,7.0856884E-2,1.13078825E-1,9.995875E-2,9.855554E-2,1.4031644E-1,1.036089E-2,-9.712998E-2,-2.4482766E-2,1.6198078E-1,1.08571135E-1,-1.4412303E-1,1.0834997E-1,6.0626037E-2,1.6000871E-1,1.5339276E-1,-2.717999E-2,1.17303744E-1,1.3254173E-1,4.8758134E-2,1.1877532E-1,1.10427946E-1,9.407665E-2,1.4336029E-1,1.0154809E-1,1.3236275E-1,-7.7220544E-2,-1.20803036E-1,5.807353E-2,4.3092333E-2,-1.2019221E-1,-1.6096658E-1,-2.1339726E-2,4.2832512E-2,-4.816895E-2,2.3390515E-2,-1.12647854E-1,1.21838115E-1,-7.220816E-2,8.395371E-3,1.7063855E-1,-2.8084889E-2,1.3083236E-1,-1.2317437E-1,-1.6467638E-1,3.0113263E-2,-7.790519E-2,-1.9686969E-2,-7.724533E-2,1.1135059E-1,-9.382647E-2,-5.7517674E-2,1.3402121E-1,-1.3460979E-1,9.066798E-2,1.1362958E-1,-2.379416E-3],"split_indices":[4667,2675,1060,0,421,457,605,3419,655,4648,4863,3842,605,0,4034,1896,2208,4568,4568,4800,2572,2602,2745,421,392,478,3288,0,0,0,0,4642,413,0,4626,2370,1060,3006,0,156,3842,2790,2745,3310,1694,936,1980,0,0,0,0,0,0,0,0,0,0,0,0,0,0,0,0,0,0,0,0,0,0,0,0,0,0,0,0,0,0,0,0],"split_type":[0,0,0,0,0,0,0,0,0,0,0,0,0,0,0,0,0,0,0,0,0,0,0,0,0,0,0,0,0,0,0,0,0,0,0,0,0,0,0,0,0,0,0,0,0,0,0,0,0,0,0,0,0,0,0,0,0,0,0,0,0,0,0,0,0,0,0,0,0,0,0,0,0,0,0,0,0,0,0],"sum_hessian":[2.915366E4,9.988526E2,2.8154809E4,1.6979039E0,9.9715466E2,1.1977223E3,2.6957086E4,9.91469E2,5.685701E0,1.0677104E3,1.300118E2,2.6076545E4,8.805415E2,1.4505464E0,9.9001843E2,2.6685696E0,3.0171316E0,9.8635547E2,8.1355E1,8.184351E1,4.816828E1,5.161535E2,2.556039E4,4.7050494E2,4.1003653E2,6.589594E0,9.8342883E2,1.1621977E0,1.5063717E0,2.0023108E0,1.0148208E0,7.226376E2,2.637179E2,1.5133022E1,6.6221985E1,2.9364965E1,5.2478546E1,4.658221E1,1.5860718E0,3.8508847E0,5.123026E2,2.1249137E4,4.3112534E3,4.630872E2,7.4177623E0,4.077693E2,2.2672532E0,1.7058493E0,4.8837447E0,9.817014E2,1.7274424E0,1.0362946E1,7.122746E2,2.6095593E2,2.7619534E0,3.5885063E1,3.033692E1,2.2492779E1,6.8721857E0,5.0361473E1,2.1170733E0,1.1658694E0,4.541634E1,1.1925238E0,2.6583607E0,3.289325E2,1.8337015E2,2.0330238E4,9.188983E2,3.4991213E3,8.1213214E2,4.5028133E0,4.5858438E2,1.2146273E0,6.203135E0,4.063683E2,1.4009929E0,1.1388813E0,1.1283717E0],"tree_param":{"num_deleted":"0","num_feature":"5000","num_nodes":"79","size_leaf_vector":"1"}},{"base_weights":[5.7987997E-4,-8.109832E-1,5.3760987E-2,-9.725172E-1,-6.0987048E-2,1.4090084E-1,-4.3777463E-1,-8.880671E-1,-1.4892547E0,-1.2932731E0,2.3559852E-1,-1.4565271E0,1.6761036E-1,6.149433E-1,-4.839282E-1,1.3958578E0,-9.058802E-1,2.0803312E-2,-1.5009254E0,2.4796324E-3,-1.3186449E0,9.522047E-1,-1.462636E-1,6.8588215E-1,-1.4751369E0,-1.1369357E0,2.006076E-1,-1.7370875E-1,7.534572E-1,-5.394072E-1,3.9374235E-1,1.5583412E-1,7.4964985E-3,-1.1552626E0,-7.56822E-1,-1.4550288E0,-2.2090696E-1,-1.3352023E-1,-2.1299751E-2,-1.2315642E-1,1.0017221E0,-5.208311E-1,5.597101E-1,-2.9863263E-2,1.16032414E-1,5.904254E-2,-1.4846156E0,-1.2075189E0,-6.02582E-1,-8.1109005E-1,2.4197976E-1,-4.1105142E-1,1.1021787E0,8.3981055E-1,-6.004844E-1,8.458572E-1,-5.7020736E-1,2.2674274E-1,9.2785805E-1,-1.1633503E-1,4.837377E-2,-6.173742E-2,-1.2938014E-1,-1.4638864E-1,9.671838E-3,1.093814E-1,-3.356305E-2,6.626149E-2,-6.751868E-2,-9.919022E-2,6.894153E-2,6.607442E-2,-1.4931971E-1,9.8856986E-2,-1.2177254E-1,7.2079584E-2,-7.139585E-2,-1.0510218E-1,1.071577E-1,2.7799029E-2,-9.1903545E-2,6.603182E-2,-6.5213345E-2,1.1541932E-2,1.390936E-1,9.120735E-2,-4.9674794E-2,-8.854809E-2,7.407086E-2,-9.9355474E-2,9.585034E-2,6.178412E-2,-6.0270905E-2,2.8689671E-2,-1.2225834E-1,1.0315241E-1,-3.0150283E-2],"categories":[],"categories_nodes":[],"categories_segments":[],"categories_sizes":[],"default_left":[0,1,1,1,0,0,0,0,0,0,0,0,0,0,1,1,0,0,1,0,1,0,1,0,0,1,0,1,1,0,0,0,0,1,1,1,0,0,0,0,1,0,0,0,0,0,0,0,0,1,1,0,1,1,1,0,0,1,1,0,0,0,0,0,0,0,0,0,0,0,0,0,0,0,0,0,0,0,0,0,0,0,0,0,0,0,0,0,0,0,0,0,0,0,0,0,0],"id":13,"left_children":[1,3,5,7,9,11,13,15,17,19,21,23,25,27,29,31,33,-1,35,-1,37,39,41,43,45,47,49,51,53,55,57,-1,-1,59,61,63,-1,-1,-1,-1,65,67,69,-1,-1,-1,71,73,75,77,79,81,83,85,87,89,91,93,95,-1,-1,-1,-1,-1,-1,-1,-1,-1,-1,-1,-1,-1,-1,-1,-1,-1,-1,-1,-1,-1,-1,-1,-1,-1,-1,-1,-1,-1,-1,-1,-1,-1,-1,-1,-1,-1,-1],"loss_changes":[1.2441553E3,2.1471765E2,1.1588424E3,6.2328003E1,1.15515045E2,9.8075146E2,1.9824707E2,5.2370483E1,4.3416443E0,2.082878E0,6.9898415E1,1.608374E1,9.732359E2,1.8871773E1,1.9028735E2,2.0541096E0,4.5481934E1,0E0,3.3557434E0,0E0,8.1705475E-1,1.0830971E1,4.449774E1,2.1859522E0,8.220398E0,2.0309937E1,9.2299426E2,8.460457E0,1.758776E1,1.5715015E2,2.0542252E1,0E0,0E0,6.7216797E0,5.7864838E1,2.7911987E0,0E0,0E0,0E0,0E0,1.1123489E1,2.0493858E1,1.2443407E1,0E0,0E0,0E0,7.8658447E0,1.2225098E1,1.0401394E1,3.9248517E2,8.858281E2,6.3773184E0,1.098589E0,1.3759613E1,4.2272983E0,1.7584301E1,1.3909814E2,1.5918629E1,7.332382E0,0E0,0E0,0E0,0E0,0E0,0E0,0E0,0E0,0E0,0E0,0E0,0E0,0E0,0E0,0E0,0E0,0E0,0E0,0E0,0E0,0E0,0E0,0E0,0E0,0E0,0E0,0E0,0E0,0E0,0E0,0E0,0E0,0E0,0E0,0E0,0E0,0E0,0E0],"parents":[2147483647,0,0,1,1,2,2,3,3,4,4,5,5,6,6,7,7,8,8,9,9,10,10,11,11,12,12,13,13,14,14,15,15,16,16,18,18,20,20,21,21,22,22,23,23,24,24,25,25,26,26,27,27,28,28,29,29,30,30,33,33,34,34,35,35,40,40,41,41,42,42,46,46,47,47,48,48,49,49,50,50,51,51,52,52,53,53,54,54,55,55,56,56,57,57,58,58],"right_children":[2,4,6,8,10,12,14,16,18,20,22,24,26,28,30,32,34,-1,36,-1,38,40,42,44,46,48,50,52,54,56,58,-1,-1,60,62,64,-1,-1,-1,-1,66,68,70,-1,-1,-1,72,74,76,78,80,82,84,86,88,90,92,94,96,-1,-1,-1,-1,-1,-1,-1,-1,-1,-1,-1,-1,-1,-1,-1,-1,-1,-1,-1,-1,-1,-1,-1,-1,-1,-1,-1,-1,-1,-1,-1,-1,-1,-1,-1,-1,-1,-1],"split_conditions":[8.866785E-1,6.512E-2,3.472419E-2,7.69099E-2,1.0735226E0,1.0818934E0,3.497175E-1,3.483454E-1,1.2748425E-1,5.4694057E-2,7.8610057E-1,1.1180727E-1,1.1832714E0,1.0288828E-1,4.8351962E-2,6.574771E-2,9.052199E-1,2.0803312E-2,5.4748006E-2,2.4796324E-3,1.0929406E-1,2.778531E-1,6.1485097E-2,4.711506E-2,1.124356E-1,3.9542153E-2,9.762169E-1,5.054075E-2,8.1795946E-2,3.1914988E-1,1.0260191E-1,1.5583412E-1,7.4964985E-3,9.158463E-2,8.267471E-2,1.0983444E-1,-2.2090696E-1,-1.3352023E-1,-2.1299751E-2,-1.2315642E-1,5.7286404E-2,3.9694853E-2,1.2999056E-1,-2.9863263E-2,1.16032414E-1,5.904254E-2,1.4143027E-1,7.374344E-2,5.7264235E-2,8.339756E-2,5.8616128E-2,3.6274374E-2,3.8492054E-2,6.801342E-2,4.6117827E-2,2.2674175E-1,1.1753892E0,7.610595E-2,5.8339644E-2,-1.1633503E-1,4.837377E-2,-6.173742E-2,-1.2938014E-1,-1.4638864E-1,9.671838E-3,1.093814E-1,-3.356305E-2,6.626149E-2,-6.751868E-2,-9.919022E-2,6.894153E-2,6.607442E-2,-1.4931971E-1,9.8856986E-2,-1.2177254E-1,7.2079584E-2,-7.139585E-2,-1.0510218E-1,1.071577E-1,2.7799029E-2,-9.1903545E-2,6.603182E-2,-6.5213345E-2,1.1541932E-2,1.390936E-1,9.120735E-2,-4.9674794E-2,-8.854809E-2,7.407086E-2,-9.9355474E-2,9.585034E-2,6.178412E-2,-6.0270905E-2,2.8689671E-2,-1.2225834E-1,1.0315241E-1,-3.0150283E-2],"split_indices":[2572,4002,2727,3424,2787,1063,1165,4720,1296,1245,4901,3310,4894,478,3918,4626,4667,0,1625,0,1612,3007,1462,323,3106,519,1060,265,4121,161,519,0,0,3622,2673,671,0,0,0,0,1037,323,4181,0,0,0,3558,1868,4712,457,605,2906,4174,4438,2928,605,3051,4791,4399,0,0,0,0,0,0,0,0,0,0,0,0,0,0,0,0,0,0,0,0,0,0,0,0,0,0,0,0,0,0,0,0,0,0,0,0,0,0],"split_type":[0,0,0,0,0,0,0,0,0,0,0,0,0,0,0,0,0,0,0,0,0,0,0,0,0,0,0,0,0,0,0,0,0,0,0,0,0,0,0,0,0,0,0,0,0,0,0,0,0,0,0,0,0,0,0,0,0,0,0,0,0,0,0,0,0,0,0,0,0,0,0,0,0,0,0,0,0,0,0,0,0,0,0,0,0,0,0,0,0,0,0,0,0,0,0,0,0],"sum_hessian":[2.882469E4,1.7718201E3,2.705287E4,1.4575883E3,3.1423178E2,2.2979719E4,4.073151E3,1.2551746E3,2.0241376E2,6.0305862E1,2.539259E2,3.7702924E2,2.260269E4,1.7055827E2,3.9025925E3,9.115076E0,1.2460594E3,1.267421E0,2.0114633E2,1.139344E0,5.9166515E1,8.775341E1,1.661725E2,2.938046E0,3.740912E2,5.5678375E2,2.2045906E4,2.5442568E1,1.451157E2,3.6709321E3,2.3166034E2,7.956573E0,1.1585035E0,4.6363046E2,7.8242896E2,1.917718E2,9.374536E0,5.8088993E1,1.0775247E0,1.4164178E0,8.633699E1,1.0874046E2,5.743203E1,1.0759343E0,1.8621118E0,1.4288615E0,3.7266232E2,4.907062E2,6.607755E1,8.65391E2,2.1180514E4,2.2023542E1,3.4190245E0,1.367722E2,8.3435E0,7.92691E1,3.591663E3,1.7756606E2,5.409428E1,4.6164273E2,1.9877446E0,6.228351E2,1.595939E2,1.9073965E2,1.0321423E0,8.094511E1,5.391887E0,1.2166568E1,9.65739E1,3.9177835E0,5.3514248E1,1.1819419E0,3.7148038E2,1.8265997E0,4.888796E2,4.704685E0,6.1372868E1,7.6796173E2,9.742922E1,2.0544072E4,6.3644275E2,3.726037E0,1.8297506E1,1.0908871E0,2.3281374E0,1.3005803E2,6.7141747E0,7.1615E0,1.1819999E0,4.12306E0,7.5146034E1,9.516182E1,3.4965012E3,1.7126E2,6.306061E0,5.0035923E1,4.0583577E0],"tree_param":{"num_deleted":"0","num_feature":"5000","num_nodes":"97","size_leaf_vector":"1"}},{"base_weights":[-2.689652E-4,-1.1045793E0,3.505466E-2,-1.1093338E0,9.478767E-2,8.91096E-2,-6.7308265E-1,6.0259414E-1,-1.1152159E0,-1.566881E0,1.11805886E-1,-6.9486934E-1,8.0883515E-1,-4.4822957E-2,1.4688784E-1,-1.1192682E0,1.0342854E-1,1.0766205E0,-1.6020851E0,4.244024E-2,6.503566E-1,-8.145698E-1,-4.4389495E-1,-7.616223E-1,9.940884E-1,4.3556175E-1,-1.1249672E0,5.6143827E-3,1.3565294E-1,-1.6269928E0,-4.318312E-1,1.1222261E0,7.860573E-3,8.7286514E-1,3.873615E-1,4.0788907E-1,-8.36901E-1,-1.444018E0,-3.8915968E-1,-1.071113E-2,-1.0381726E-1,1.1392622E0,-7.562971E-2,-6.8137586E-2,1.119233E-1,4.9276125E-2,-1.12992644E-1,-1.6426334E-1,-4.5565604E-3,6.963773E-2,-1.032601E-1,1.6255195E-1,9.680301E-2,-5.699823E-3,5.892369E-2,7.209801E-2,1.1685697E-1,4.5542974E-2,-4.8873954E-2,-7.187238E-2,7.871533E-2,-8.519701E-2,9.934913E-2,8.3685145E-3,-1.5014537E-1,7.915454E-2,-4.3463193E-2,1.2846145E-1,-3.348918E-2],"categories":[],"categories_nodes":[],"categories_segments":[],"categories_sizes":[],"default_left":[0,1,1,0,0,0,1,0,1,0,1,1,0,0,0,0,0,1,1,0,1,0,0,1,1,0,0,0,0,1,0,0,1,0,1,0,1,0,0,0,0,1,0,0,0,0,0,0,0,0,0,0,0,0,0,0,0,0,0,0,0,0,0,0,0,0,0,0,0],"id":14,"left_children":[1,3,5,7,-1,9,11,13,15,17,19,21,23,-1,-1,25,-1,27,29,31,33,35,37,39,41,43,45,-1,-1,47,49,51,53,55,57,59,61,63,65,-1,-1,67,-1,-1,-1,-1,-1,-1,-1,-1,-1,-1,-1,-1,-1,-1,-1,-1,-1,-1,-1,-1,-1,-1,-1,-1,-1,-1,-1],"loss_changes":[1.1201769E3,9.737305E0,1.0652054E3,9.618774E0,0E0,9.7188464E2,6.428076E1,4.018869E0,8.873169E0,3.4260925E1,9.527662E2,5.8085083E1,9.210598E0,0E0,0E0,8.328491E0,0E0,1.4071164E0,9.365845E0,8.436943E2,1.6996106E2,3.6268494E1,3.3950363E1,5.462272E-1,7.5763283E0,3.7800388E0,7.630249E0,0E0,0E0,8.282043E0,6.521068E0,5.2840942E1,8.256673E2,6.992383E1,7.986711E1,1.0941109E1,3.650409E1,2.963707E0,3.250979E1,0E0,0E0,5.7440643E0,0E0,0E0,0E0,0E0,0E0,0E0,0E0,0E0,0E0,0E0,0E0,0E0,0E0,0E0,0E0,0E0,0E0,0E0,0E0,0E0,0E0,0E0,0E0,0E0,0E0,0E0,0E0],"parents":[2147483647,0,0,1,1,2,2,3,3,5,5,6,6,7,7,8,8,9,9,10,10,11,11,12,12,15,15,17,17,18,18,19,19,20,20,21,21,22,22,23,23,24,24,25,25,26,26,29,29,30,30,31,31,32,32,33,33,34,34,35,35,36,36,37,37,38,38,41,41],"right_children":[2,4,6,8,-1,10,12,14,16,18,20,22,24,-1,-1,26,-1,28,30,32,34,36,38,40,42,44,46,-1,-1,48,50,52,54,56,58,60,62,64,66,-1,-1,68,-1,-1,-1,-1,-1,-1,-1,-1,-1,-1,-1,-1,-1,-1,-1,-1,-1,-1,-1,-1,-1,-1,-1,-1,-1,-1,-1],"split_conditions":[9.052199E-1,9.0150766E-2,4.9067166E-2,1.5921736E-1,9.478767E-2,1.0930107E0,7.669187E-2,5.982981E-2,1.1952392E-1,2.990592E-1,4.1236315E-2,3.5927337E-2,2.9028803E-2,-4.4822957E-2,1.4688784E-1,2.1970417E-1,1.0342854E-1,3.6861986E-2,6.9656625E-2,8.1970054E-1,2.6193889E-2,2.8597564E-1,1.2260852E0,5.166476E-2,6.465666E-2,1.2578441E-1,1.0028195E-1,5.6143827E-3,1.3565294E-1,8.107797E-2,7.8578316E-2,5.845542E-1,6.843067E-2,1.1430757E-1,7.640219E-2,1.349553E-1,7.8296274E-2,7.138602E-2,2.7952105E-1,-1.071113E-2,-1.0381726E-1,8.933836E-2,-7.562971E-2,-6.8137586E-2,1.119233E-1,4.9276125E-2,-1.12992644E-1,-1.6426334E-1,-4.5565604E-3,6.963773E-2,-1.032601E-1,1.6255195E-1,9.680301E-2,-5.699823E-3,5.892369E-2,7.209801E-2,1.1685697E-1,4.5542974E-2,-4.8873954E-2,-7.187238E-2,7.871533E-2,-8.519701E-2,9.934913E-2,8.3685145E-3,-1.5014537E-1,7.915454E-2,-4.3463193E-2,1.2846145E-1,-3.348918E-2],"split_indices":[4667,2675,432,2004,0,1064,421,1980,3390,2675,2404,1593,1980,0,0,4407,0,4174,4866,1788,655,3051,2760,4174,4005,4992,2665,0,0,1344,323,3312,1625,2404,691,2727,2413,4906,1001,0,0,4184,0,0,0,0,0,0,0,0,0,0,0,0,0,0,0,0,0,0,0,0,0,0,0,0,0,0,0],"split_type":[0,0,0,0,0,0,0,0,0,0,0,0,0,0,0,0,0,0,0,0,0,0,0,0,0,0,0,0,0,0,0,0,0,0,0,0,0,0,0,0,0,0,0,0,0,0,0,0,0,0,0,0,0,0,0,0,0,0,0,0,0,0,0,0,0,0,0,0,0],"sum_hessian":[2.8714418E4,8.8908203E2,2.7825336E4,8.874857E2,1.5963148E0,2.5852766E4,1.9725703E3,2.6915624E0,8.847942E2,3.4861627E2,2.550415E4,1.9445138E3,2.8056498E1,1.4343026E0,1.2572597E0,8.8360767E2,1.1864752E0,4.1928086E0,3.4442346E2,2.2594982E4,2.9091682E3,1.3150597E3,6.2945404E2,2.6320906E0,2.5424406E1,2.9514782E0,8.806562E2,1.1609303E0,3.0318782E0,3.3686334E2,7.56011E0,7.0016455E2,2.1894816E4,1.5746268E3,1.3345413E3,2.3282124E1,1.2917776E3,3.1344545E1,5.981095E2,1.1938709E0,1.4382197E0,2.3799644E1,1.6247628E0,1.1219184E0,1.8295599E0,2.3908706E0,8.782653E2,3.3352603E2,3.337306E0,2.5716221E0,4.988488E0,1.6196652E2,5.38198E2,1.9698176E4,2.196642E3,1.0425645E3,5.320624E2,1.2387754E3,9.576586E1,5.6383195E0,1.7643803E1,1.2817599E3,1.0017772E1,1.1191738E0,3.022537E1,2.157216E1,5.7653735E2,2.178064E1,2.019005E0],"tree_param":{"num_deleted":"0","num_feature":"5000","num_nodes":"69","size_leaf_vector":"1"}},{"base_weights":[-6.040324E-3,2.7950361E-2,-1.1420019E0,-8.4908545E-1,7.189279E-2,-1.1648942E0,3.775174E-1,